digraph Tree {
0 [label="X[0] <= 486.5000\nimpurity = 0.0402031901262\nsamples = 3122", shape="box"] ;
1 [label="X[0] <= 243.5000\nimpurity = 0.0315336412721\nsamples = 1687", shape="box"] ;
0 -> 1 ;
2 [label="X[0] <= 182.5000\nimpurity = 0.0202687040793\nsamples = 854", shape="box"] ;
1 -> 2 ;
3 [label="X[0] <= 126.0000\nimpurity = 0.0162947317908\nsamples = 653", shape="box"] ;
2 -> 3 ;
4 [label="X[0] <= 14.5000\nimpurity = 0.00858338196353\nsamples = 439", shape="box"] ;
3 -> 4 ;
5 [label="X[0] <= 2.5000\nimpurity = 0.00141728512964\nsamples = 51", shape="box"] ;
4 -> 5 ;
6 [label="X[0] <= 0.5000\nimpurity = 0.000713652796582\nsamples = 10", shape="box"] ;
5 -> 6 ;
7 [label="X[1] <= 488.5000\nimpurity = 0.000268359451596\nsamples = 3", shape="box"] ;
6 -> 7 ;
8 [label="impurity = 0.0000\nsamples = 1\nvalue = [ 0.33269059]", shape="box"] ;
7 -> 8 ;
9 [label="X[1] <= 539.0000\nimpurity = 7.18527062239e-06\nsamples = 2", shape="box"] ;
7 -> 9 ;
10 [label="impurity = 0.0000\nsamples = 1\nvalue = [ 0.30331216]", shape="box"] ;
9 -> 10 ;
11 [label="impurity = 0.0000\nsamples = 1\nvalue = [ 0.29762588]", shape="box"] ;
9 -> 11 ;
12 [label="X[1] <= 360.0000\nimpurity = 0.000193908819299\nsamples = 7", shape="box"] ;
6 -> 12 ;
13 [label="X[1] <= 264.5000\nimpurity = 2.30741635133e-05\nsamples = 4", shape="box"] ;
12 -> 13 ;
14 [label="X[1] <= 187.5000\nimpurity = 1.91511601327e-07\nsamples = 3", shape="box"] ;
13 -> 14 ;
15 [label="impurity = 0.0000\nsamples = 2\nvalue = [ 0.36913987]", shape="box"] ;
14 -> 15 ;
16 [label="impurity = 0.0000\nsamples = 1\nvalue = [ 0.37000745]", shape="box"] ;
14 -> 16 ;
17 [label="impurity = -0.0000\nsamples = 1\nvalue = [ 0.37904039]", shape="box"] ;
13 -> 17 ;
18 [label="X[1] <= 448.5000\nimpurity = 0.000167512535022\nsamples = 3", shape="box"] ;
12 -> 18 ;
19 [label="impurity = 0.0000\nsamples = 1\nvalue = [ 0.3608549]", shape="box"] ;
18 -> 19 ;
20 [label="X[1] <= 479.5000\nimpurity = 0.00022493529877\nsamples = 2", shape="box"] ;
18 -> 20 ;
21 [label="impurity = 0.0000\nsamples = 1\nvalue = [ 0.33324118]", shape="box"] ;
20 -> 21 ;
22 [label="impurity = -0.0000\nsamples = 1\nvalue = [ 0.36323686]", shape="box"] ;
20 -> 22 ;
23 [label="X[1] <= 374.0000\nimpurity = 0.000958147769701\nsamples = 41", shape="box"] ;
5 -> 23 ;
24 [label="X[0] <= 8.5000\nimpurity = 0.000774142075829\nsamples = 29", shape="box"] ;
23 -> 24 ;
25 [label="X[1] <= 205.0000\nimpurity = 0.000886288576077\nsamples = 13", shape="box"] ;
24 -> 25 ;
26 [label="X[1] <= 93.5000\nimpurity = 8.58432601691e-05\nsamples = 4", shape="box"] ;
25 -> 26 ;
27 [label="impurity = 0.0000\nsamples = 1\nvalue = [ 0.37680118]", shape="box"] ;
26 -> 27 ;
28 [label="X[0] <= 4.5000\nimpurity = 0.000118244938716\nsamples = 3", shape="box"] ;
26 -> 28 ;
29 [label="X[0] <= 3.5000\nimpurity = 2.38316266436e-05\nsamples = 2", shape="box"] ;
28 -> 29 ;
30 [label="impurity = 0.0000\nsamples = 1\nvalue = [ 0.37849843]", shape="box"] ;
29 -> 30 ;
31 [label="impurity = 0.0000\nsamples = 1\nvalue = [ 0.3687349]", shape="box"] ;
29 -> 31 ;
32 [label="impurity = -0.0000\nsamples = 1\nvalue = [ 0.3521549]", shape="box"] ;
28 -> 32 ;
33 [label="X[1] <= 284.5000\nimpurity = 0.000625087191855\nsamples = 9", shape="box"] ;
25 -> 33 ;
34 [label="X[1] <= 238.0000\nimpurity = 0.000198080493383\nsamples = 3", shape="box"] ;
33 -> 34 ;
35 [label="impurity = 0.0000\nsamples = 1\nvalue = [ 0.43091451]", shape="box"] ;
34 -> 35 ;
36 [label="impurity = 0.0000\nsamples = 2\nvalue = [ 0.45906222]", shape="box"] ;
34 -> 36 ;
37 [label="X[1] <= 306.5000\nimpurity = 0.000327517435173\nsamples = 6", shape="box"] ;
33 -> 37 ;
38 [label="impurity = 0.0000\nsamples = 1\nvalue = [ 0.38857373]", shape="box"] ;
37 -> 38 ;
39 [label="X[1] <= 319.0000\nimpurity = 0.000244302384189\nsamples = 5", shape="box"] ;
37 -> 39 ;
40 [label="impurity = 0.0000\nsamples = 1\nvalue = [ 0.43962863]", shape="box"] ;
39 -> 40 ;
41 [label="X[1] <= 345.5000\nimpurity = 7.62059643044e-05\nsamples = 4", shape="box"] ;
39 -> 41 ;
42 [label="X[1] <= 339.0000\nimpurity = 3.19294500269e-05\nsamples = 3", shape="box"] ;
41 -> 42 ;
43 [label="X[0] <= 7.5000\nimpurity = 1.11870574394e-05\nsamples = 2", shape="box"] ;
42 -> 43 ;
44 [label="impurity = 0.0000\nsamples = 1\nvalue = [ 0.40544353]", shape="box"] ;
43 -> 44 ;
45 [label="impurity = 0.0000\nsamples = 1\nvalue = [ 0.41213294]", shape="box"] ;
43 -> 45 ;
46 [label="impurity = -0.0000\nsamples = 1\nvalue = [ 0.42077255]", shape="box"] ;
42 -> 46 ;
47 [label="impurity = -0.0000\nsamples = 1\nvalue = [ 0.39228784]", shape="box"] ;
41 -> 47 ;
48 [label="X[1] <= 23.0000\nimpurity = 0.000555530544114\nsamples = 16", shape="box"] ;
24 -> 48 ;
49 [label="X[1] <= 17.0000\nimpurity = 5.96129326505e-05\nsamples = 2", shape="box"] ;
48 -> 49 ;
50 [label="impurity = 0.0000\nsamples = 1\nvalue = [ 0.41853176]", shape="box"] ;
49 -> 50 ;
51 [label="impurity = 0.0000\nsamples = 1\nvalue = [ 0.39922941]", shape="box"] ;
49 -> 51 ;
52 [label="X[1] <= 34.5000\nimpurity = 0.000570021175814\nsamples = 14", shape="box"] ;
48 -> 52 ;
53 [label="impurity = 0.0000\nsamples = 1\nvalue = [ 0.50015569]", shape="box"] ;
52 -> 53 ;
54 [label="X[1] <= 276.5000\nimpurity = 0.000312141163176\nsamples = 13", shape="box"] ;
52 -> 54 ;
55 [label="X[1] <= 170.5000\nimpurity = 0.000385184430933\nsamples = 10", shape="box"] ;
54 -> 55 ;
56 [label="X[0] <= 13.5000\nimpurity = 0.000202383659529\nsamples = 7", shape="box"] ;
55 -> 56 ;
57 [label="X[1] <= 101.5000\nimpurity = 7.81102975361e-05\nsamples = 6", shape="box"] ;
56 -> 57 ;
58 [label="X[1] <= 90.0000\nimpurity = 7.61100862492e-06\nsamples = 4", shape="box"] ;
57 -> 58 ;
59 [label="X[1] <= 72.0000\nimpurity = 3.75626492696e-06\nsamples = 3", shape="box"] ;
58 -> 59 ;
60 [label="impurity = 0.0000\nsamples = 2\nvalue = [ 0.41794183]", shape="box"] ;
59 -> 60 ;
61 [label="impurity = 0.0000\nsamples = 1\nvalue = [ 0.41347922]", shape="box"] ;
59 -> 61 ;
62 [label="impurity = 0.0000\nsamples = 1\nvalue = [ 0.42162]", shape="box"] ;
58 -> 62 ;
63 [label="X[1] <= 122.5000\nimpurity = 0.000103698824384\nsamples = 2", shape="box"] ;
57 -> 63 ;
64 [label="impurity = 0.0000\nsamples = 1\nvalue = [ 0.44598275]", shape="box"] ;
63 -> 64 ;
65 [label="impurity = 0.0000\nsamples = 1\nvalue = [ 0.42438078]", shape="box"] ;
63 -> 65 ;
66 [label="impurity = 0.0000\nsamples = 1\nvalue = [ 0.46111922]", shape="box"] ;
56 -> 66 ;
67 [label="X[1] <= 240.5000\nimpurity = 0.000249207152047\nsamples = 3", shape="box"] ;
55 -> 67 ;
68 [label="X[0] <= 11.5000\nimpurity = 5.62373733182e-06\nsamples = 2", shape="box"] ;
67 -> 68 ;
69 [label="impurity = 0.0000\nsamples = 1\nvalue = [ 0.3921451]", shape="box"] ;
68 -> 69 ;
70 [label="impurity = 0.0000\nsamples = 1\nvalue = [ 0.38711451]", shape="box"] ;
68 -> 70 ;
71 [label="impurity = 0.0000\nsamples = 1\nvalue = [ 0.42493843]", shape="box"] ;
67 -> 71 ;
72 [label="X[1] <= 348.0000\nimpurity = 4.69896132238e-06\nsamples = 3", shape="box"] ;
54 -> 72 ;
73 [label="X[0] <= 11.0000\nimpurity = 1.64693456367e-06\nsamples = 2", shape="box"] ;
72 -> 73 ;
74 [label="impurity = 0.0000\nsamples = 1\nvalue = [ 0.43346]", shape="box"] ;
73 -> 74 ;
75 [label="impurity = 0.0000\nsamples = 1\nvalue = [ 0.43618235]", shape="box"] ;
73 -> 75 ;
76 [label="impurity = -0.0000\nsamples = 1\nvalue = [ 0.4304302]", shape="box"] ;
72 -> 76 ;
77 [label="X[0] <= 10.5000\nimpurity = 0.000638409442018\nsamples = 12", shape="box"] ;
23 -> 77 ;
78 [label="X[0] <= 5.5000\nimpurity = 0.000257370739716\nsamples = 9", shape="box"] ;
77 -> 78 ;
79 [label="X[1] <= 496.5000\nimpurity = 6.96686357924e-05\nsamples = 3", shape="box"] ;
78 -> 79 ;
80 [label="impurity = 0.0000\nsamples = 1\nvalue = [ 0.36331725]", shape="box"] ;
79 -> 80 ;
81 [label="X[1] <= 560.0000\nimpurity = 1.23748247597e-05\nsamples = 2", shape="box"] ;
79 -> 81 ;
82 [label="impurity = 0.0000\nsamples = 1\nvalue = [ 0.34223804]", shape="box"] ;
81 -> 82 ;
83 [label="impurity = -0.0000\nsamples = 1\nvalue = [ 0.34970039]", shape="box"] ;
81 -> 83 ;
84 [label="X[1] <= 443.0000\nimpurity = 0.000157201748902\nsamples = 6", shape="box"] ;
78 -> 84 ;
85 [label="X[0] <= 8.5000\nimpurity = 3.50464e-05\nsamples = 2", shape="box"] ;
84 -> 85 ;
86 [label="impurity = 0.0000\nsamples = 1\nvalue = [ 0.35517647]", shape="box"] ;
85 -> 86 ;
87 [label="impurity = -0.0000\nsamples = 1\nvalue = [ 0.36701647]", shape="box"] ;
85 -> 87 ;
88 [label="X[0] <= 8.5000\nimpurity = 7.92917957581e-05\nsamples = 4", shape="box"] ;
84 -> 88 ;
89 [label="X[1] <= 485.5000\nimpurity = 3.28442547573e-05\nsamples = 3", shape="box"] ;
88 -> 89 ;
90 [label="impurity = 0.0000\nsamples = 1\nvalue = [ 0.37549961]", shape="box"] ;
89 -> 90 ;
91 [label="X[0] <= 7.5000\nimpurity = 3.55330009824e-05\nsamples = 2", shape="box"] ;
89 -> 91 ;
92 [label="impurity = 0.0000\nsamples = 1\nvalue = [ 0.39085922]", shape="box"] ;
91 -> 92 ;
93 [label="impurity = -0.0000\nsamples = 1\nvalue = [ 0.37821412]", shape="box"] ;
91 -> 93 ;
94 [label="impurity = 0.0000\nsamples = 1\nvalue = [ 0.39899216]", shape="box"] ;
88 -> 94 ;
95 [label="X[1] <= 515.5000\nimpurity = 0.000346875312675\nsamples = 3", shape="box"] ;
77 -> 95 ;
96 [label="X[0] <= 13.0000\nimpurity = 1.44593790465e-05\nsamples = 2", shape="box"] ;
95 -> 96 ;
97 [label="impurity = 0.0000\nsamples = 1\nvalue = [ 0.39190706]", shape="box"] ;
96 -> 97 ;
98 [label="impurity = 0.0000\nsamples = 1\nvalue = [ 0.39951216]", shape="box"] ;
96 -> 98 ;
99 [label="impurity = -0.0000\nsamples = 1\nvalue = [ 0.43466549]", shape="box"] ;
95 -> 99 ;
100 [label="X[1] <= 382.0000\nimpurity = 0.00864049296661\nsamples = 388", shape="box"] ;
4 -> 100 ;
101 [label="X[1] <= 225.5000\nimpurity = 0.011723317267\nsamples = 247", shape="box"] ;
100 -> 101 ;
102 [label="X[0] <= 64.0000\nimpurity = 0.00318624136512\nsamples = 142", shape="box"] ;
101 -> 102 ;
103 [label="X[1] <= 106.5000\nimpurity = 0.00188340378408\nsamples = 64", shape="box"] ;
102 -> 103 ;
104 [label="X[0] <= 23.0000\nimpurity = 0.0019818015618\nsamples = 27", shape="box"] ;
103 -> 104 ;
105 [label="X[0] <= 17.5000\nimpurity = 0.00146022738581\nsamples = 7", shape="box"] ;
104 -> 105 ;
106 [label="X[0] <= 16.0000\nimpurity = 3.31025916958e-06\nsamples = 2", shape="box"] ;
105 -> 106 ;
107 [label="impurity = 0.0000\nsamples = 1\nvalue = [ 0.49249098]", shape="box"] ;
106 -> 107 ;
108 [label="impurity = 0.0000\nsamples = 1\nvalue = [ 0.4961298]", shape="box"] ;
106 -> 108 ;
109 [label="X[1] <= 104.5000\nimpurity = 0.000419140441033\nsamples = 5", shape="box"] ;
105 -> 109 ;
110 [label="X[1] <= 31.0000\nimpurity = 0.000218582137187\nsamples = 4", shape="box"] ;
109 -> 110 ;
111 [label="impurity = 0.0000\nsamples = 1\nvalue = [ 0.43158235]", shape="box"] ;
110 -> 111 ;
112 [label="X[0] <= 21.5000\nimpurity = 5.63478002307e-05\nsamples = 3", shape="box"] ;
110 -> 112 ;
113 [label="X[0] <= 20.0000\nimpurity = 2.11673971548e-06\nsamples = 2", shape="box"] ;
112 -> 113 ;
114 [label="impurity = 0.0000\nsamples = 1\nvalue = [ 0.39625922]", shape="box"] ;
113 -> 114 ;
115 [label="impurity = -0.0000\nsamples = 1\nvalue = [ 0.39916902]", shape="box"] ;
113 -> 115 ;
116 [label="impurity = 0.0000\nsamples = 1\nvalue = [ 0.38284275]", shape="box"] ;
112 -> 116 ;
117 [label="impurity = 0.0000\nsamples = 1\nvalue = [ 0.43505922]", shape="box"] ;
109 -> 117 ;
118 [label="X[1] <= 86.0000\nimpurity = 0.00167206506991\nsamples = 20", shape="box"] ;
104 -> 118 ;
119 [label="X[0] <= 28.0000\nimpurity = 0.00136282081995\nsamples = 17", shape="box"] ;
118 -> 119 ;
120 [label="X[1] <= 28.0000\nimpurity = 0.00075503259246\nsamples = 3", shape="box"] ;
119 -> 120 ;
121 [label="impurity = 0.0000\nsamples = 1\nvalue = [ 0.46728706]", shape="box"] ;
120 -> 121 ;
122 [label="X[1] <= 52.0000\nimpurity = 0.000323583498176\nsamples = 2", shape="box"] ;
120 -> 122 ;
123 [label="impurity = 0.0000\nsamples = 1\nvalue = [ 0.54143961]", shape="box"] ;
122 -> 123 ;
124 [label="impurity = 0.0000\nsamples = 1\nvalue = [ 0.50328039]", shape="box"] ;
122 -> 124 ;
125 [label="X[1] <= 26.0000\nimpurity = 0.000939595068009\nsamples = 14", shape="box"] ;
119 -> 125 ;
126 [label="X[1] <= 19.0000\nimpurity = 0.00039713356063\nsamples = 2", shape="box"] ;
125 -> 126 ;
127 [label="impurity = 0.0000\nsamples = 1\nvalue = [ 0.47868667]", shape="box"] ;
126 -> 127 ;
128 [label="impurity = -0.0000\nsamples = 1\nvalue = [ 0.52096078]", shape="box"] ;
126 -> 128 ;
129 [label="X[0] <= 44.0000\nimpurity = 0.000484621162288\nsamples = 12", shape="box"] ;
125 -> 129 ;
130 [label="X[1] <= 83.0000\nimpurity = 0.000369181488383\nsamples = 7", shape="box"] ;
129 -> 130 ;
131 [label="X[1] <= 81.5000\nimpurity = 0.000299179704129\nsamples = 6", shape="box"] ;
130 -> 131 ;
132 [label="X[1] <= 78.5000\nimpurity = 6.68588032584e-05\nsamples = 5", shape="box"] ;
131 -> 132 ;
133 [label="X[1] <= 47.5000\nimpurity = 5.79993409316e-05\nsamples = 4", shape="box"] ;
132 -> 133 ;
134 [label="X[1] <= 33.5000\nimpurity = 1.39929884948e-05\nsamples = 2", shape="box"] ;
133 -> 134 ;
135 [label="impurity = 0.0000\nsamples = 1\nvalue = [ 0.41754078]", shape="box"] ;
134 -> 135 ;
136 [label="impurity = 0.0000\nsamples = 1\nvalue = [ 0.40890196]", shape="box"] ;
134 -> 136 ;
137 [label="X[1] <= 66.0000\nimpurity = 2.65544235123e-05\nsamples = 2", shape="box"] ;
133 -> 137 ;
138 [label="impurity = 0.0000\nsamples = 1\nvalue = [ 0.43158314]", shape="box"] ;
137 -> 138 ;
139 [label="impurity = -0.0000\nsamples = 1\nvalue = [ 0.42065176]", shape="box"] ;
137 -> 139 ;
140 [label="impurity = 0.0000\nsamples = 1\nvalue = [ 0.40862706]", shape="box"] ;
132 -> 140 ;
141 [label="impurity = 0.0000\nsamples = 1\nvalue = [ 0.36997686]", shape="box"] ;
131 -> 141 ;
142 [label="impurity = 0.0000\nsamples = 1\nvalue = [ 0.44709176]", shape="box"] ;
130 -> 142 ;
143 [label="X[1] <= 60.5000\nimpurity = 8.65504399243e-05\nsamples = 5", shape="box"] ;
129 -> 143 ;
144 [label="X[1] <= 30.0000\nimpurity = 3.90695290401e-05\nsamples = 4", shape="box"] ;
143 -> 144 ;
145 [label="impurity = 0.0000\nsamples = 1\nvalue = [ 0.46609569]", shape="box"] ;
144 -> 145 ;
146 [label="X[1] <= 39.5000\nimpurity = 3.92891174786e-06\nsamples = 3", shape="box"] ;
144 -> 146 ;
147 [label="X[1] <= 33.5000\nimpurity = 2.14096202314e-06\nsamples = 2", shape="box"] ;
146 -> 147 ;
148 [label="impurity = 0.0000\nsamples = 1\nvalue = [ 0.4503349]", shape="box"] ;
147 -> 148 ;
149 [label="impurity = -0.0000\nsamples = 1\nvalue = [ 0.45343882]", shape="box"] ;
147 -> 149 ;
150 [label="impurity = -0.0000\nsamples = 1\nvalue = [ 0.4480502]", shape="box"] ;
146 -> 150 ;
151 [label="impurity = 0.0000\nsamples = 1\nvalue = [ 0.43524392]", shape="box"] ;
143 -> 151 ;
152 [label="X[0] <= 39.0000\nimpurity = 0.000965688042599\nsamples = 3", shape="box"] ;
118 -> 152 ;
153 [label="impurity = 0.0000\nsamples = 1\nvalue = [ 0.45485961]", shape="box"] ;
152 -> 153 ;
154 [label="X[1] <= 93.0000\nimpurity = 3.39057287025e-05\nsamples = 2", shape="box"] ;
152 -> 154 ;
155 [label="impurity = 0.0000\nsamples = 1\nvalue = [ 0.52155686]", shape="box"] ;
154 -> 155 ;
156 [label="impurity = 0.0000\nsamples = 1\nvalue = [ 0.53390902]", shape="box"] ;
154 -> 156 ;
157 [label="X[1] <= 136.0000\nimpurity = 0.00160284054821\nsamples = 37", shape="box"] ;
103 -> 157 ;
158 [label="X[1] <= 111.5000\nimpurity = 0.00174991573744\nsamples = 10", shape="box"] ;
157 -> 158 ;
159 [label="X[0] <= 34.5000\nimpurity = 8.56241777778e-05\nsamples = 2", shape="box"] ;
158 -> 159 ;
160 [label="impurity = 0.0000\nsamples = 1\nvalue = [ 0.47085137]", shape="box"] ;
159 -> 160 ;
161 [label="impurity = -0.0000\nsamples = 1\nvalue = [ 0.45234471]", shape="box"] ;
159 -> 161 ;
162 [label="X[0] <= 57.5000\nimpurity = 0.00162935779263\nsamples = 8", shape="box"] ;
158 -> 162 ;
163 [label="X[0] <= 47.0000\nimpurity = 0.00111355086236\nsamples = 7", shape="box"] ;
162 -> 163 ;
164 [label="X[0] <= 37.0000\nimpurity = 0.000983251357136\nsamples = 5", shape="box"] ;
163 -> 164 ;
165 [label="X[1] <= 115.5000\nimpurity = 4.3856153788e-06\nsamples = 3", shape="box"] ;
164 -> 165 ;
166 [label="impurity = -0.0000\nsamples = 1\nvalue = [ 0.53536118]", shape="box"] ;
165 -> 166 ;
167 [label="X[1] <= 123.0000\nimpurity = 7.71641676389e-07\nsamples = 2", shape="box"] ;
165 -> 167 ;
168 [label="impurity = 0.0000\nsamples = 1\nvalue = [ 0.53860431]", shape="box"] ;
167 -> 168 ;
169 [label="impurity = 0.0000\nsamples = 1\nvalue = [ 0.54036118]", shape="box"] ;
167 -> 169 ;
170 [label="X[0] <= 42.0000\nimpurity = 5.28409707037e-05\nsamples = 2", shape="box"] ;
164 -> 170 ;
171 [label="impurity = 0.0000\nsamples = 1\nvalue = [ 0.47054588]", shape="box"] ;
170 -> 171 ;
172 [label="impurity = -0.0000\nsamples = 1\nvalue = [ 0.48733333]", shape="box"] ;
170 -> 172 ;
173 [label="X[1] <= 124.0000\nimpurity = 4.16492153155e-07\nsamples = 2", shape="box"] ;
163 -> 173 ;
174 [label="impurity = 0.0000\nsamples = 1\nvalue = [ 0.55457333]", shape="box"] ;
173 -> 174 ;
175 [label="impurity = 0.0000\nsamples = 1\nvalue = [ 0.55320431]", shape="box"] ;
173 -> 175 ;
176 [label="impurity = 0.0000\nsamples = 1\nvalue = [ 0.4284949]", shape="box"] ;
162 -> 176 ;
177 [label="X[1] <= 217.5000\nimpurity = 0.000971872440476\nsamples = 27", shape="box"] ;
157 -> 177 ;
178 [label="X[1] <= 173.5000\nimpurity = 0.00081655950844\nsamples = 24", shape="box"] ;
177 -> 178 ;
179 [label="X[1] <= 149.0000\nimpurity = 0.000696094273047\nsamples = 12", shape="box"] ;
178 -> 179 ;
180 [label="X[1] <= 140.0000\nimpurity = 0.000755197698202\nsamples = 3", shape="box"] ;
179 -> 180 ;
181 [label="impurity = 0.0000\nsamples = 1\nvalue = [ 0.40134863]", shape="box"] ;
180 -> 181 ;
182 [label="X[1] <= 143.0000\nimpurity = 1.05965079032e-05\nsamples = 2", shape="box"] ;
180 -> 182 ;
183 [label="impurity = -0.0000\nsamples = 1\nvalue = [ 0.47199725]", shape="box"] ;
182 -> 183 ;
184 [label="impurity = 0.0000\nsamples = 1\nvalue = [ 0.47864196]", shape="box"] ;
182 -> 184 ;
185 [label="X[1] <= 157.0000\nimpurity = 0.000361607963892\nsamples = 9", shape="box"] ;
179 -> 185 ;
186 [label="X[1] <= 154.0000\nimpurity = 3.61128768454e-05\nsamples = 3", shape="box"] ;
185 -> 186 ;
187 [label="impurity = 0.0000\nsamples = 1\nvalue = [ 0.40082863]", shape="box"] ;
186 -> 187 ;
188 [label="impurity = 0.0000\nsamples = 2\nvalue = [ 0.41469621]", shape="box"] ;
186 -> 188 ;
189 [label="X[0] <= 16.5000\nimpurity = 0.000287376653816\nsamples = 6", shape="box"] ;
185 -> 189 ;
190 [label="impurity = 0.0000\nsamples = 1\nvalue = [ 0.41851765]", shape="box"] ;
189 -> 190 ;
191 [label="X[1] <= 163.0000\nimpurity = 0.000240873014725\nsamples = 5", shape="box"] ;
189 -> 191 ;
192 [label="impurity = 0.0000\nsamples = 1\nvalue = [ 0.46699725]", shape="box"] ;
191 -> 192 ;
193 [label="X[0] <= 24.5000\nimpurity = 0.00018003251852\nsamples = 4", shape="box"] ;
191 -> 193 ;
194 [label="impurity = 0.0000\nsamples = 1\nvalue = [ 0.41987098]", shape="box"] ;
193 -> 194 ;
195 [label="X[0] <= 33.0000\nimpurity = 0.000135935084489\nsamples = 3", shape="box"] ;
193 -> 195 ;
196 [label="impurity = 0.0000\nsamples = 1\nvalue = [ 0.45574549]", shape="box"] ;
195 -> 196 ;
197 [label="X[1] <= 170.5000\nimpurity = 7.52131064975e-05\nsamples = 2", shape="box"] ;
195 -> 197 ;
198 [label="impurity = 0.0000\nsamples = 1\nvalue = [ 0.42742431]", shape="box"] ;
197 -> 198 ;
199 [label="impurity = -0.0000\nsamples = 1\nvalue = [ 0.44476941]", shape="box"] ;
197 -> 199 ;
200 [label="X[1] <= 188.5000\nimpurity = 0.000702532193238\nsamples = 12", shape="box"] ;
178 -> 200 ;
201 [label="X[0] <= 44.5000\nimpurity = 0.00027586158635\nsamples = 5", shape="box"] ;
200 -> 201 ;
202 [label="X[0] <= 25.5000\nimpurity = 0.000305265039136\nsamples = 3", shape="box"] ;
201 -> 202 ;
203 [label="X[0] <= 19.0000\nimpurity = 1.2907616066e-06\nsamples = 2", shape="box"] ;
202 -> 203 ;
204 [label="impurity = 0.0000\nsamples = 1\nvalue = [ 0.47590392]", shape="box"] ;
203 -> 204 ;
205 [label="impurity = -0.0000\nsamples = 1\nvalue = [ 0.47338902]", shape="box"] ;
203 -> 205 ;
206 [label="impurity = -0.0000\nsamples = 1\nvalue = [ 0.52683961]", shape="box"] ;
202 -> 206 ;
207 [label="X[0] <= 60.0000\nimpurity = 3.81746374456e-06\nsamples = 2", shape="box"] ;
201 -> 207 ;
208 [label="impurity = 0.0000\nsamples = 1\nvalue = [ 0.46300039]", shape="box"] ;
207 -> 208 ;
209 [label="impurity = -0.0000\nsamples = 1\nvalue = [ 0.4671451]", shape="box"] ;
207 -> 209 ;
210 [label="X[0] <= 38.0000\nimpurity = 0.000591962560455\nsamples = 7", shape="box"] ;
200 -> 210 ;
211 [label="X[1] <= 206.0000\nimpurity = 0.000122652308152\nsamples = 4", shape="box"] ;
210 -> 211 ;
212 [label="X[1] <= 204.5000\nimpurity = 2.54967310553e-05\nsamples = 3", shape="box"] ;
211 -> 212 ;
213 [label="X[1] <= 197.0000\nimpurity = 1.07563101712e-05\nsamples = 2", shape="box"] ;
212 -> 213 ;
214 [label="impurity = 0.0000\nsamples = 1\nvalue = [ 0.42740863]", shape="box"] ;
213 -> 214 ;
215 [label="impurity = -0.0000\nsamples = 1\nvalue = [ 0.42045137]", shape="box"] ;
213 -> 215 ;
216 [label="impurity = -0.0000\nsamples = 1\nvalue = [ 0.41312902]", shape="box"] ;
212 -> 216 ;
217 [label="impurity = -0.0000\nsamples = 1\nvalue = [ 0.44564039]", shape="box"] ;
211 -> 217 ;
218 [label="X[0] <= 58.5000\nimpurity = 0.000217893091683\nsamples = 3", shape="box"] ;
210 -> 218 ;
219 [label="X[1] <= 203.0000\nimpurity = 9.6193787005e-05\nsamples = 2", shape="box"] ;
218 -> 219 ;
220 [label="impurity = 0.0000\nsamples = 1\nvalue = [ 0.44985176]", shape="box"] ;
219 -> 220 ;
221 [label="impurity = -0.0000\nsamples = 1\nvalue = [ 0.46946745]", shape="box"] ;
219 -> 221 ;
222 [label="impurity = 0.0000\nsamples = 1\nvalue = [ 0.48596431]", shape="box"] ;
218 -> 222 ;
223 [label="X[1] <= 223.5000\nimpurity = 0.000227680141324\nsamples = 3", shape="box"] ;
177 -> 223 ;
224 [label="X[1] <= 221.5000\nimpurity = 9.17412252011e-06\nsamples = 2", shape="box"] ;
223 -> 224 ;
225 [label="impurity = 0.0000\nsamples = 1\nvalue = [ 0.50666627]", shape="box"] ;
224 -> 225 ;
226 [label="impurity = -0.0000\nsamples = 1\nvalue = [ 0.49967137]", shape="box"] ;
224 -> 226 ;
227 [label="impurity = 0.0000\nsamples = 1\nvalue = [ 0.46780784]", shape="box"] ;
223 -> 227 ;
228 [label="X[0] <= 90.5000\nimpurity = 0.00119366153759\nsamples = 78", shape="box"] ;
102 -> 228 ;
229 [label="X[1] <= 72.5000\nimpurity = 0.00083789542012\nsamples = 28", shape="box"] ;
228 -> 229 ;
230 [label="X[1] <= 34.0000\nimpurity = 0.000763744594935\nsamples = 11", shape="box"] ;
229 -> 230 ;
231 [label="X[1] <= 26.5000\nimpurity = 0.000767626331449\nsamples = 5", shape="box"] ;
230 -> 231 ;
232 [label="X[0] <= 70.5000\nimpurity = 0.000451312904972\nsamples = 4", shape="box"] ;
231 -> 232 ;
233 [label="X[1] <= 18.5000\nimpurity = 7.80709342557e-06\nsamples = 2", shape="box"] ;
232 -> 233 ;
234 [label="impurity = 0.0000\nsamples = 1\nvalue = [ 0.50919608]", shape="box"] ;
233 -> 234 ;
235 [label="impurity = -0.0000\nsamples = 1\nvalue = [ 0.51478431]", shape="box"] ;
233 -> 235 ;
236 [label="X[1] <= 13.5000\nimpurity = 5.59832714353e-06\nsamples = 2", shape="box"] ;
232 -> 236 ;
237 [label="impurity = 0.0000\nsamples = 1\nvalue = [ 0.55906745]", shape="box"] ;
236 -> 237 ;
238 [label="impurity = -0.0000\nsamples = 1\nvalue = [ 0.55433529]", shape="box"] ;
236 -> 238 ;
239 [label="impurity = 0.0000\nsamples = 1\nvalue = [ 0.4813949]", shape="box"] ;
231 -> 239 ;
240 [label="X[0] <= 76.5000\nimpurity = 0.000244482300503\nsamples = 6", shape="box"] ;
230 -> 240 ;
241 [label="X[1] <= 64.5000\nimpurity = 5.99647439531e-05\nsamples = 3", shape="box"] ;
240 -> 241 ;
242 [label="X[0] <= 75.0000\nimpurity = 1.53787004998e-05\nsamples = 2", shape="box"] ;
241 -> 242 ;
243 [label="impurity = 0.0000\nsamples = 1\nvalue = [ 0.5200749]", shape="box"] ;
242 -> 243 ;
244 [label="impurity = 0.0000\nsamples = 1\nvalue = [ 0.52791804]", shape="box"] ;
242 -> 244 ;
245 [label="impurity = 0.0000\nsamples = 1\nvalue = [ 0.53970549]", shape="box"] ;
241 -> 245 ;
246 [label="X[1] <= 58.0000\nimpurity = 0.000303585360011\nsamples = 3", shape="box"] ;
240 -> 246 ;
247 [label="X[0] <= 81.5000\nimpurity = 0.000367102275159\nsamples = 2", shape="box"] ;
246 -> 247 ;
248 [label="impurity = 0.0000\nsamples = 1\nvalue = [ 0.55289882]", shape="box"] ;
247 -> 248 ;
249 [label="impurity = 0.0000\nsamples = 1\nvalue = [ 0.51225451]", shape="box"] ;
247 -> 249 ;
250 [label="impurity = -0.0000\nsamples = 1\nvalue = [ 0.56126275]", shape="box"] ;
246 -> 250 ;
251 [label="X[1] <= 81.0000\nimpurity = 0.000752039835028\nsamples = 17", shape="box"] ;
229 -> 251 ;
252 [label="impurity = 0.0000\nsamples = 1\nvalue = [ 0.47693765]", shape="box"] ;
251 -> 252 ;
253 [label="X[0] <= 68.5000\nimpurity = 0.000721518339946\nsamples = 16", shape="box"] ;
251 -> 253 ;
254 [label="impurity = 0.0000\nsamples = 1\nvalue = [ 0.46554588]", shape="box"] ;
253 -> 254 ;
255 [label="X[1] <= 104.5000\nimpurity = 0.000656059571306\nsamples = 15", shape="box"] ;
253 -> 255 ;
256 [label="X[1] <= 93.5000\nimpurity = 2.58920595155e-05\nsamples = 3", shape="box"] ;
255 -> 256 ;
257 [label="impurity = 0.0000\nsamples = 1\nvalue = [ 0.54345647]", shape="box"] ;
256 -> 257 ;
258 [label="X[0] <= 77.0000\nimpurity = 2.24455017295e-07\nsamples = 2", shape="box"] ;
256 -> 258 ;
259 [label="impurity = -0.0000\nsamples = 1\nvalue = [ 0.53242]", shape="box"] ;
258 -> 259 ;
260 [label="impurity = -0.0000\nsamples = 1\nvalue = [ 0.53351412]", shape="box"] ;
258 -> 260 ;
261 [label="X[0] <= 72.0000\nimpurity = 0.000636121013533\nsamples = 12", shape="box"] ;
255 -> 261 ;
262 [label="X[1] <= 160.5000\nimpurity = 0.000474070411927\nsamples = 2", shape="box"] ;
261 -> 262 ;
263 [label="impurity = 0.0000\nsamples = 1\nvalue = [ 0.55311412]", shape="box"] ;
262 -> 263 ;
264 [label="impurity = -0.0000\nsamples = 1\nvalue = [ 0.50692627]", shape="box"] ;
262 -> 264 ;
265 [label="X[0] <= 79.5000\nimpurity = 0.000599827528307\nsamples = 10", shape="box"] ;
261 -> 265 ;
266 [label="X[1] <= 216.0000\nimpurity = 0.000223772060655\nsamples = 4", shape="box"] ;
265 -> 266 ;
267 [label="X[1] <= 137.0000\nimpurity = 0.000124098742774\nsamples = 3", shape="box"] ;
266 -> 267 ;
268 [label="impurity = 0.0000\nsamples = 1\nvalue = [ 0.47555373]", shape="box"] ;
267 -> 268 ;
269 [label="X[1] <= 185.5000\nimpurity = 7.59678080738e-05\nsamples = 2", shape="box"] ;
267 -> 269 ;
270 [label="impurity = 0.0000\nsamples = 1\nvalue = [ 0.50883098]", shape="box"] ;
269 -> 270 ;
271 [label="impurity = 0.0000\nsamples = 1\nvalue = [ 0.48870235]", shape="box"] ;
269 -> 271 ;
272 [label="impurity = -0.0000\nsamples = 1\nvalue = [ 0.51863843]", shape="box"] ;
266 -> 272 ;
273 [label="X[0] <= 81.5000\nimpurity = 0.000769283780643\nsamples = 6", shape="box"] ;
265 -> 273 ;
274 [label="impurity = 0.0000\nsamples = 1\nvalue = [ 0.55198314]", shape="box"] ;
273 -> 274 ;
275 [label="X[0] <= 84.0000\nimpurity = 0.000593221874138\nsamples = 5", shape="box"] ;
273 -> 275 ;
276 [label="impurity = 0.0000\nsamples = 1\nvalue = [ 0.46602118]", shape="box"] ;
275 -> 276 ;
277 [label="X[1] <= 108.5000\nimpurity = 0.000331490597524\nsamples = 4", shape="box"] ;
275 -> 277 ;
278 [label="impurity = 0.0000\nsamples = 1\nvalue = [ 0.49231843]", shape="box"] ;
277 -> 278 ;
279 [label="X[0] <= 87.0000\nimpurity = 0.000270236652855\nsamples = 3", shape="box"] ;
277 -> 279 ;
280 [label="X[1] <= 145.0000\nimpurity = 8.7981412995e-05\nsamples = 2", shape="box"] ;
279 -> 280 ;
281 [label="impurity = 0.0000\nsamples = 1\nvalue = [ 0.51754431]", shape="box"] ;
280 -> 281 ;
282 [label="impurity = -0.0000\nsamples = 1\nvalue = [ 0.49764667]", shape="box"] ;
280 -> 282 ;
283 [label="impurity = 0.0000\nsamples = 1\nvalue = [ 0.54391686]", shape="box"] ;
279 -> 283 ;
284 [label="X[0] <= 116.5000\nimpurity = 0.000857767392991\nsamples = 50", shape="box"] ;
228 -> 284 ;
285 [label="X[0] <= 106.5000\nimpurity = 0.000739686746396\nsamples = 39", shape="box"] ;
284 -> 285 ;
286 [label="X[1] <= 175.0000\nimpurity = 0.000800940642582\nsamples = 24", shape="box"] ;
285 -> 286 ;
287 [label="X[1] <= 49.5000\nimpurity = 0.000694810377859\nsamples = 19", shape="box"] ;
286 -> 287 ;
288 [label="X[0] <= 102.5000\nimpurity = 0.00034805728706\nsamples = 4", shape="box"] ;
287 -> 288 ;
289 [label="X[0] <= 97.5000\nimpurity = 9.135075e-06\nsamples = 2", shape="box"] ;
288 -> 289 ;
290 [label="impurity = 0.0000\nsamples = 1\nvalue = [ 0.57892118]", shape="box"] ;
289 -> 290 ;
291 [label="impurity = 0.0000\nsamples = 1\nvalue = [ 0.57194118]", shape="box"] ;
289 -> 291 ;
292 [label="X[1] <= 38.5000\nimpurity = 0.000446609490235\nsamples = 2", shape="box"] ;
288 -> 292 ;
293 [label="impurity = 0.0000\nsamples = 1\nvalue = [ 0.6167451]", shape="box"] ;
292 -> 293 ;
294 [label="impurity = -0.0000\nsamples = 1\nvalue = [ 0.57447882]", shape="box"] ;
292 -> 294 ;
295 [label="X[1] <= 90.5000\nimpurity = 0.000667607769427\nsamples = 15", shape="box"] ;
287 -> 295 ;
296 [label="X[0] <= 92.0000\nimpurity = 0.000160301788638\nsamples = 6", shape="box"] ;
295 -> 296 ;
297 [label="impurity = 0.0000\nsamples = 1\nvalue = [ 0.51447176]", shape="box"] ;
296 -> 297 ;
298 [label="X[1] <= 83.5000\nimpurity = 0.000106631676\nsamples = 5", shape="box"] ;
296 -> 298 ;
299 [label="X[1] <= 75.0000\nimpurity = 8.05633290102e-05\nsamples = 4", shape="box"] ;
298 -> 299 ;
300 [label="X[1] <= 59.5000\nimpurity = 3.84863393396e-05\nsamples = 3", shape="box"] ;
299 -> 300 ;
301 [label="impurity = 0.0000\nsamples = 1\nvalue = [ 0.52793294]", shape="box"] ;
300 -> 301 ;
302 [label="X[0] <= 100.0000\nimpurity = 4.95106128406e-06\nsamples = 2", shape="box"] ;
300 -> 302 ;
303 [label="impurity = 0.0000\nsamples = 1\nvalue = [ 0.54274118]", shape="box"] ;
302 -> 303 ;
304 [label="impurity = -0.0000\nsamples = 1\nvalue = [ 0.53829098]", shape="box"] ;
302 -> 304 ;
305 [label="impurity = -0.0000\nsamples = 1\nvalue = [ 0.55198314]", shape="box"] ;
299 -> 305 ;
306 [label="impurity = 0.0000\nsamples = 1\nvalue = [ 0.52845373]", shape="box"] ;
298 -> 306 ;
307 [label="X[0] <= 102.5000\nimpurity = 0.000338432756927\nsamples = 9", shape="box"] ;
295 -> 307 ;
308 [label="X[0] <= 95.0000\nimpurity = 0.000200860161306\nsamples = 7", shape="box"] ;
307 -> 308 ;
309 [label="impurity = 0.0000\nsamples = 1\nvalue = [ 0.60498039]", shape="box"] ;
308 -> 309 ;
310 [label="X[1] <= 169.0000\nimpurity = 0.000106438108783\nsamples = 6", shape="box"] ;
308 -> 310 ;
311 [label="X[1] <= 105.0000\nimpurity = 3.18177212739e-05\nsamples = 5", shape="box"] ;
310 -> 311 ;
312 [label="impurity = 0.0000\nsamples = 1\nvalue = [ 0.57554235]", shape="box"] ;
311 -> 312 ;
313 [label="X[1] <= 156.0000\nimpurity = 2.18600864083e-06\nsamples = 4", shape="box"] ;
311 -> 313 ;
314 [label="X[1] <= 135.5000\nimpurity = 1.58118296817e-06\nsamples = 2", shape="box"] ;
313 -> 314 ;
315 [label="impurity = 0.0000\nsamples = 1\nvalue = [ 0.58730706]", shape="box"] ;
314 -> 315 ;
316 [label="impurity = 0.0000\nsamples = 1\nvalue = [ 0.58479216]", shape="box"] ;
314 -> 316 ;
317 [label="impurity = 0.0000\nsamples = 2\nvalue = [ 0.58841216]", shape="box"] ;
313 -> 317 ;
318 [label="impurity = -0.0000\nsamples = 1\nvalue = [ 0.56234902]", shape="box"] ;
310 -> 318 ;
319 [label="X[1] <= 136.5000\nimpurity = 0.000148749111919\nsamples = 2", shape="box"] ;
307 -> 319 ;
320 [label="impurity = 0.0000\nsamples = 1\nvalue = [ 0.56321216]", shape="box"] ;
319 -> 320 ;
321 [label="impurity = 0.0000\nsamples = 1\nvalue = [ 0.53881961]", shape="box"] ;
319 -> 321 ;
322 [label="X[1] <= 187.5000\nimpurity = 0.000423898569232\nsamples = 5", shape="box"] ;
286 -> 322 ;
323 [label="impurity = 0.0000\nsamples = 1\nvalue = [ 0.52204706]", shape="box"] ;
322 -> 323 ;
324 [label="X[1] <= 212.5000\nimpurity = 0.000410428304624\nsamples = 4", shape="box"] ;
322 -> 324 ;
325 [label="X[1] <= 207.0000\nimpurity = 0.000372469429296\nsamples = 3", shape="box"] ;
324 -> 325 ;
326 [label="X[1] <= 201.0000\nimpurity = 9.0569965398e-05\nsamples = 2", shape="box"] ;
325 -> 326 ;
327 [label="impurity = 0.0000\nsamples = 1\nvalue = [ 0.5441251]", shape="box"] ;
326 -> 327 ;
328 [label="impurity = 0.0000\nsamples = 1\nvalue = [ 0.56431333]", shape="box"] ;
326 -> 328 ;
329 [label="impurity = -0.0000\nsamples = 1\nvalue = [ 0.52117608]", shape="box"] ;
325 -> 329 ;
330 [label="impurity = 0.0000\nsamples = 1\nvalue = [ 0.56961882]", shape="box"] ;
324 -> 330 ;
331 [label="X[1] <= 42.5000\nimpurity = 0.000428210949666\nsamples = 15", shape="box"] ;
285 -> 331 ;
332 [label="X[0] <= 108.0000\nimpurity = 5.38972997133e-06\nsamples = 3", shape="box"] ;
331 -> 332 ;
333 [label="impurity = 0.0000\nsamples = 1\nvalue = [ 0.51927922]", shape="box"] ;
332 -> 333 ;
334 [label="X[1] <= 19.0000\nimpurity = 7.06816637719e-07\nsamples = 2", shape="box"] ;
332 -> 334 ;
335 [label="impurity = 0.0000\nsamples = 1\nvalue = [ 0.52349843]", shape="box"] ;
334 -> 335 ;
336 [label="impurity = 0.0000\nsamples = 1\nvalue = [ 0.52544]", shape="box"] ;
334 -> 336 ;
337 [label="X[1] <= 76.0000\nimpurity = 0.000436465991919\nsamples = 12", shape="box"] ;
331 -> 337 ;
338 [label="X[0] <= 115.0000\nimpurity = 4.49159110419e-05\nsamples = 4", shape="box"] ;
337 -> 338 ;
339 [label="X[0] <= 109.5000\nimpurity = 2.97952448689e-05\nsamples = 3", shape="box"] ;
338 -> 339 ;
340 [label="impurity = 0.0000\nsamples = 1\nvalue = [ 0.56880824]", shape="box"] ;
339 -> 340 ;
341 [label="X[1] <= 61.0000\nimpurity = 6.57903762979e-06\nsamples = 2", shape="box"] ;
339 -> 341 ;
342 [label="impurity = 0.0000\nsamples = 1\nvalue = [ 0.55790667]", shape="box"] ;
341 -> 342 ;
343 [label="impurity = -0.0000\nsamples = 1\nvalue = [ 0.55198314]", shape="box"] ;
341 -> 343 ;
344 [label="impurity = 0.0000\nsamples = 1\nvalue = [ 0.56966353]", shape="box"] ;
338 -> 344 ;
345 [label="X[1] <= 188.5000\nimpurity = 0.00040681756506\nsamples = 8", shape="box"] ;
337 -> 345 ;
346 [label="X[1] <= 162.0000\nimpurity = 0.000422348625951\nsamples = 6", shape="box"] ;
345 -> 346 ;
347 [label="X[0] <= 113.5000\nimpurity = 0.000303659013426\nsamples = 4", shape="box"] ;
346 -> 347 ;
348 [label="X[1] <= 104.5000\nimpurity = 0.000103474314187\nsamples = 2", shape="box"] ;
347 -> 348 ;
349 [label="impurity = 0.0000\nsamples = 1\nvalue = [ 0.54138706]", shape="box"] ;
348 -> 349 ;
350 [label="impurity = -0.0000\nsamples = 1\nvalue = [ 0.56487882]", shape="box"] ;
348 -> 350 ;
351 [label="X[0] <= 115.5000\nimpurity = 0.000346916189196\nsamples = 2", shape="box"] ;
347 -> 351 ;
352 [label="impurity = 0.0000\nsamples = 1\nvalue = [ 0.5054898]", shape="box"] ;
351 -> 352 ;
353 [label="impurity = 0.0000\nsamples = 1\nvalue = [ 0.54274118]", shape="box"] ;
351 -> 353 ;
354 [label="X[0] <= 108.5000\nimpurity = 0.000153851021949\nsamples = 2", shape="box"] ;
346 -> 354 ;
355 [label="impurity = 0.0000\nsamples = 1\nvalue = [ 0.52954]", shape="box"] ;
354 -> 355 ;
356 [label="impurity = -0.0000\nsamples = 1\nvalue = [ 0.50322784]", shape="box"] ;
354 -> 356 ;
357 [label="X[0] <= 112.0000\nimpurity = 4.21590030844e-05\nsamples = 2", shape="box"] ;
345 -> 357 ;
358 [label="impurity = 0.0000\nsamples = 1\nvalue = [ 0.5463651]", shape="box"] ;
357 -> 358 ;
359 [label="impurity = -0.0000\nsamples = 1\nvalue = [ 0.56013882]", shape="box"] ;
357 -> 359 ;
360 [label="X[1] <= 141.0000\nimpurity = 0.0009087256608\nsamples = 11", shape="box"] ;
284 -> 360 ;
361 [label="X[0] <= 122.5000\nimpurity = 0.000597991712852\nsamples = 9", shape="box"] ;
360 -> 361 ;
362 [label="X[1] <= 33.0000\nimpurity = 0.000412999435049\nsamples = 8", shape="box"] ;
361 -> 362 ;
363 [label="impurity = -0.0000\nsamples = 1\nvalue = [ 0.55960314]", shape="box"] ;
362 -> 363 ;
364 [label="X[1] <= 70.0000\nimpurity = 0.000238363563474\nsamples = 7", shape="box"] ;
362 -> 364 ;
365 [label="impurity = 0.0000\nsamples = 1\nvalue = [ 0.62457333]", shape="box"] ;
364 -> 365 ;
366 [label="X[1] <= 86.5000\nimpurity = 3.50914862334e-05\nsamples = 6", shape="box"] ;
364 -> 366 ;
367 [label="impurity = 0.0000\nsamples = 1\nvalue = [ 0.59904196]", shape="box"] ;
366 -> 367 ;
368 [label="X[1] <= 105.0000\nimpurity = 2.13349889038e-05\nsamples = 5", shape="box"] ;
366 -> 368 ;
369 [label="impurity = 0.0000\nsamples = 1\nvalue = [ 0.5758549]", shape="box"] ;
368 -> 369 ;
370 [label="X[1] <= 137.5000\nimpurity = 1.64783999318e-06\nsamples = 4", shape="box"] ;
368 -> 370 ;
371 [label="X[1] <= 132.5000\nimpurity = 8.42842562077e-07\nsamples = 3", shape="box"] ;
370 -> 371 ;
372 [label="X[0] <= 119.0000\nimpurity = 7.12538667846e-07\nsamples = 2", shape="box"] ;
371 -> 372 ;
373 [label="impurity = 0.0000\nsamples = 1\nvalue = [ 0.58732196]", shape="box"] ;
372 -> 373 ;
374 [label="impurity = -0.0000\nsamples = 1\nvalue = [ 0.58927137]", shape="box"] ;
372 -> 374 ;
375 [label="impurity = -0.0000\nsamples = 1\nvalue = [ 0.5900898]", shape="box"] ;
371 -> 375 ;
376 [label="impurity = -0.0000\nsamples = 1\nvalue = [ 0.58643608]", shape="box"] ;
370 -> 376 ;
377 [label="impurity = 0.0000\nsamples = 1\nvalue = [ 0.53040314]", shape="box"] ;
361 -> 377 ;
378 [label="X[1] <= 147.0000\nimpurity = 0.000119936642523\nsamples = 2", shape="box"] ;
360 -> 378 ;
379 [label="impurity = 0.0000\nsamples = 1\nvalue = [ 0.53881176]", shape="box"] ;
378 -> 379 ;
380 [label="impurity = -0.0000\nsamples = 1\nvalue = [ 0.51558]", shape="box"] ;
378 -> 380 ;
381 [label="X[0] <= 91.0000\nimpurity = 0.0186894845264\nsamples = 105", shape="box"] ;
101 -> 381 ;
382 [label="X[0] <= 35.0000\nimpurity = 0.00132486155834\nsamples = 74", shape="box"] ;
381 -> 382 ;
383 [label="X[1] <= 274.5000\nimpurity = 0.000556556104129\nsamples = 19", shape="box"] ;
382 -> 383 ;
384 [label="X[0] <= 24.0000\nimpurity = 0.000299924711255\nsamples = 8", shape="box"] ;
383 -> 384 ;
385 [label="X[1] <= 251.0000\nimpurity = 0.000291139039625\nsamples = 6", shape="box"] ;
384 -> 385 ;
386 [label="X[1] <= 235.0000\nimpurity = 0.000196766866922\nsamples = 4", shape="box"] ;
385 -> 386 ;
387 [label="X[1] <= 231.5000\nimpurity = 2.4784637063e-06\nsamples = 2", shape="box"] ;
386 -> 387 ;
388 [label="impurity = 0.0000\nsamples = 1\nvalue = [ 0.45038039]", shape="box"] ;
387 -> 388 ;
389 [label="impurity = 0.0000\nsamples = 1\nvalue = [ 0.44723176]", shape="box"] ;
387 -> 389 ;
390 [label="X[1] <= 239.5000\nimpurity = 1.77187543252e-05\nsamples = 2", shape="box"] ;
386 -> 390 ;
391 [label="impurity = 0.0000\nsamples = 1\nvalue = [ 0.42400784]", shape="box"] ;
390 -> 391 ;
392 [label="impurity = -0.0000\nsamples = 1\nvalue = [ 0.41507843]", shape="box"] ;
390 -> 392 ;
393 [label="X[1] <= 264.0000\nimpurity = 0.000176758669767\nsamples = 2", shape="box"] ;
385 -> 393 ;
394 [label="impurity = 0.0000\nsamples = 1\nvalue = [ 0.46885725]", shape="box"] ;
393 -> 394 ;
395 [label="impurity = 0.0000\nsamples = 1\nvalue = [ 0.44171882]", shape="box"] ;
393 -> 395 ;
396 [label="X[0] <= 26.5000\nimpurity = 5.15594473082e-05\nsamples = 2", shape="box"] ;
384 -> 396 ;
397 [label="impurity = 0.0000\nsamples = 1\nvalue = [ 0.41507843]", shape="box"] ;
396 -> 397 ;
398 [label="impurity = -0.0000\nsamples = 1\nvalue = [ 0.42958824]", shape="box"] ;
396 -> 398 ;
399 [label="X[0] <= 22.5000\nimpurity = 0.000450102778467\nsamples = 11", shape="box"] ;
383 -> 399 ;
400 [label="X[0] <= 16.0000\nimpurity = 0.000122870485381\nsamples = 3", shape="box"] ;
399 -> 400 ;
401 [label="impurity = 0.0000\nsamples = 1\nvalue = [ 0.42128549]", shape="box"] ;
400 -> 401 ;
402 [label="X[0] <= 19.0000\nimpurity = 1.65571915417e-05\nsamples = 2", shape="box"] ;
400 -> 402 ;
403 [label="impurity = 0.0000\nsamples = 1\nvalue = [ 0.44267922]", shape="box"] ;
402 -> 403 ;
404 [label="impurity = 0.0000\nsamples = 1\nvalue = [ 0.45131098]", shape="box"] ;
402 -> 404 ;
405 [label="X[1] <= 361.0000\nimpurity = 0.000357061952389\nsamples = 8", shape="box"] ;
399 -> 405 ;
406 [label="X[1] <= 299.5000\nimpurity = 0.000224751332481\nsamples = 7", shape="box"] ;
405 -> 406 ;
407 [label="X[0] <= 33.5000\nimpurity = 1.90401404752e-05\nsamples = 3", shape="box"] ;
406 -> 407 ;
408 [label="X[0] <= 30.5000\nimpurity = 1.46484545263e-06\nsamples = 2", shape="box"] ;
407 -> 408 ;
409 [label="impurity = 0.0000\nsamples = 1\nvalue = [ 0.45939922]", shape="box"] ;
408 -> 409 ;
410 [label="impurity = 0.0000\nsamples = 1\nvalue = [ 0.45683176]", shape="box"] ;
408 -> 410 ;
411 [label="impurity = -0.0000\nsamples = 1\nvalue = [ 0.44898863]", shape="box"] ;
407 -> 411 ;
412 [label="X[1] <= 306.0000\nimpurity = 0.000243128621936\nsamples = 4", shape="box"] ;
406 -> 412 ;
413 [label="X[0] <= 29.0000\nimpurity = 0.000157973569858\nsamples = 2", shape="box"] ;
412 -> 413 ;
414 [label="impurity = 0.0000\nsamples = 1\nvalue = [ 0.49380745]", shape="box"] ;
413 -> 414 ;
415 [label="impurity = -0.0000\nsamples = 1\nvalue = [ 0.4671451]", shape="box"] ;
413 -> 415 ;
416 [label="X[1] <= 328.5000\nimpurity = 2.26249015335e-05\nsamples = 2", shape="box"] ;
412 -> 416 ;
417 [label="impurity = 0.0000\nsamples = 1\nvalue = [ 0.46692196]", shape="box"] ;
416 -> 417 ;
418 [label="impurity = -0.0000\nsamples = 1\nvalue = [ 0.45683176]", shape="box"] ;
416 -> 418 ;
419 [label="impurity = -0.0000\nsamples = 1\nvalue = [ 0.50868314]", shape="box"] ;
405 -> 419 ;
420 [label="X[1] <= 300.0000\nimpurity = 0.000974262585368\nsamples = 55", shape="box"] ;
382 -> 420 ;
421 [label="X[0] <= 83.5000\nimpurity = 0.00147726235969\nsamples = 24", shape="box"] ;
420 -> 421 ;
422 [label="X[0] <= 64.5000\nimpurity = 0.000304881517136\nsamples = 23", shape="box"] ;
421 -> 422 ;
423 [label="X[1] <= 229.5000\nimpurity = 0.000255969647567\nsamples = 14", shape="box"] ;
422 -> 423 ;
424 [label="X[1] <= 227.5000\nimpurity = 7.15614951943e-06\nsamples = 2", shape="box"] ;
423 -> 424 ;
425 [label="impurity = 0.0000\nsamples = 1\nvalue = [ 0.50135294]", shape="box"] ;
424 -> 425 ;
426 [label="impurity = 0.0000\nsamples = 1\nvalue = [ 0.49600275]", shape="box"] ;
424 -> 426 ;
427 [label="X[1] <= 255.0000\nimpurity = 0.000215540395702\nsamples = 12", shape="box"] ;
423 -> 427 ;
428 [label="X[0] <= 57.5000\nimpurity = 0.000196596552693\nsamples = 5", shape="box"] ;
427 -> 428 ;
429 [label="X[0] <= 52.0000\nimpurity = 0.000100019361505\nsamples = 3", shape="box"] ;
428 -> 429 ;
430 [label="X[0] <= 49.5000\nimpurity = 4.43391468666e-06\nsamples = 2", shape="box"] ;
429 -> 430 ;
431 [label="impurity = 0.0000\nsamples = 1\nvalue = [ 0.46801529]", shape="box"] ;
430 -> 431 ;
432 [label="impurity = 0.0000\nsamples = 1\nvalue = [ 0.46380392]", shape="box"] ;
430 -> 432 ;
433 [label="impurity = -0.0000\nsamples = 1\nvalue = [ 0.44613059]", shape="box"] ;
429 -> 433 ;
434 [label="X[1] <= 232.0000\nimpurity = 1.50711730107e-06\nsamples = 2", shape="box"] ;
428 -> 434 ;
435 [label="impurity = 0.0000\nsamples = 1\nvalue = [ 0.47892471]", shape="box"] ;
434 -> 435 ;
436 [label="impurity = -0.0000\nsamples = 1\nvalue = [ 0.48138]", shape="box"] ;
434 -> 436 ;
437 [label="X[0] <= 39.5000\nimpurity = 6.23314103742e-05\nsamples = 7", shape="box"] ;
427 -> 437 ;
438 [label="impurity = 0.0000\nsamples = 1\nvalue = [ 0.46692196]", shape="box"] ;
437 -> 438 ;
439 [label="X[0] <= 53.5000\nimpurity = 2.10392112606e-05\nsamples = 6", shape="box"] ;
437 -> 439 ;
440 [label="X[1] <= 297.5000\nimpurity = 6.7338040273e-06\nsamples = 4", shape="box"] ;
439 -> 440 ;
441 [label="X[1] <= 282.0000\nimpurity = 4.2251504293e-06\nsamples = 3", shape="box"] ;
440 -> 441 ;
442 [label="impurity = 0.0000\nsamples = 2\nvalue = [ 0.4827049]", shape="box"] ;
441 -> 442 ;
443 [label="impurity = -0.0000\nsamples = 1\nvalue = [ 0.48705843]", shape="box"] ;
441 -> 443 ;
444 [label="impurity = -0.0000\nsamples = 1\nvalue = [ 0.47979569]", shape="box"] ;
440 -> 444 ;
445 [label="impurity = 0.0000\nsamples = 2\nvalue = [ 0.49169431]", shape="box"] ;
439 -> 445 ;
446 [label="X[1] <= 275.5000\nimpurity = 8.10285073204e-05\nsamples = 9", shape="box"] ;
422 -> 446 ;
447 [label="X[0] <= 73.5000\nimpurity = 3.88600422263e-05\nsamples = 8", shape="box"] ;
446 -> 447 ;
448 [label="X[1] <= 263.5000\nimpurity = 1.57239523291e-07\nsamples = 2", shape="box"] ;
447 -> 448 ;
449 [label="impurity = 0.0000\nsamples = 1\nvalue = [ 0.48844157]", shape="box"] ;
448 -> 449 ;
450 [label="impurity = 0.0000\nsamples = 1\nvalue = [ 0.48928275]", shape="box"] ;
448 -> 450 ;
451 [label="X[1] <= 257.0000\nimpurity = 1.12051682724e-05\nsamples = 6", shape="box"] ;
447 -> 451 ;
452 [label="X[1] <= 234.5000\nimpurity = 6.97953882872e-06\nsamples = 5", shape="box"] ;
451 -> 452 ;
453 [label="X[1] <= 232.5000\nimpurity = 6.39558323717e-07\nsamples = 2", shape="box"] ;
452 -> 453 ;
454 [label="impurity = 0.0000\nsamples = 1\nvalue = [ 0.49984902]", shape="box"] ;
453 -> 454 ;
455 [label="impurity = -0.0000\nsamples = 1\nvalue = [ 0.49815255]", shape="box"] ;
453 -> 455 ;
456 [label="X[0] <= 79.5000\nimpurity = 6.00807384221e-06\nsamples = 3", shape="box"] ;
452 -> 456 ;
457 [label="impurity = 0.0000\nsamples = 1\nvalue = [ 0.49788392]", shape="box"] ;
456 -> 457 ;
458 [label="X[0] <= 81.5000\nimpurity = 1.45275674746e-06\nsamples = 2", shape="box"] ;
456 -> 458 ;
459 [label="impurity = 0.0000\nsamples = 1\nvalue = [ 0.50269137]", shape="box"] ;
458 -> 459 ;
460 [label="impurity = 0.0000\nsamples = 1\nvalue = [ 0.5054749]", shape="box"] ;
458 -> 460 ;
461 [label="impurity = -0.0000\nsamples = 1\nvalue = [ 0.50806431]", shape="box"] ;
451 -> 461 ;
462 [label="impurity = -0.0000\nsamples = 1\nvalue = [ 0.52377333]", shape="box"] ;
446 -> 462 ;
463 [label="impurity = 0.0000\nsamples = 1\nvalue = [ 0.29974941]", shape="box"] ;
421 -> 463 ;
464 [label="X[1] <= 314.5000\nimpurity = 0.000568880591273\nsamples = 31", shape="box"] ;
420 -> 464 ;
465 [label="X[0] <= 63.5000\nimpurity = 3.23723983022e-05\nsamples = 3", shape="box"] ;
464 -> 465 ;
466 [label="impurity = 0.0000\nsamples = 1\nvalue = [ 0.53302314]", shape="box"] ;
465 -> 466 ;
467 [label="X[1] <= 311.5000\nimpurity = 1.8578126787e-07\nsamples = 2", shape="box"] ;
465 -> 467 ;
468 [label="impurity = 0.0000\nsamples = 1\nvalue = [ 0.52100549]", shape="box"] ;
467 -> 468 ;
469 [label="impurity = 0.0000\nsamples = 1\nvalue = [ 0.52013451]", shape="box"] ;
467 -> 469 ;
470 [label="X[1] <= 379.5000\nimpurity = 0.000551105440926\nsamples = 28", shape="box"] ;
464 -> 470 ;
471 [label="X[1] <= 373.0000\nimpurity = 0.00050840881179\nsamples = 27", shape="box"] ;
470 -> 471 ;
472 [label="X[0] <= 73.0000\nimpurity = 0.000426265920632\nsamples = 22", shape="box"] ;
471 -> 472 ;
473 [label="X[1] <= 318.0000\nimpurity = 0.000169788007445\nsamples = 10", shape="box"] ;
472 -> 473 ;
474 [label="impurity = 0.0000\nsamples = 1\nvalue = [ 0.50584]", shape="box"] ;
473 -> 474 ;
475 [label="X[1] <= 324.5000\nimpurity = 0.000154832896069\nsamples = 9", shape="box"] ;
473 -> 475 ;
476 [label="X[0] <= 66.0000\nimpurity = 0.000112030398179\nsamples = 3", shape="box"] ;
475 -> 476 ;
477 [label="X[0] <= 59.5000\nimpurity = 3.46020761245e-05\nsamples = 2", shape="box"] ;
476 -> 477 ;
478 [label="impurity = 0.0000\nsamples = 1\nvalue = [ 0.4772502]", shape="box"] ;
477 -> 478 ;
479 [label="impurity = -0.0000\nsamples = 1\nvalue = [ 0.46548549]", shape="box"] ;
477 -> 479 ;
480 [label="impurity = 0.0000\nsamples = 1\nvalue = [ 0.49432824]", shape="box"] ;
476 -> 480 ;
481 [label="X[1] <= 335.5000\nimpurity = 0.000120351715181\nsamples = 6", shape="box"] ;
475 -> 481 ;
482 [label="impurity = 0.0000\nsamples = 1\nvalue = [ 0.51703137]", shape="box"] ;
481 -> 482 ;
483 [label="X[1] <= 349.5000\nimpurity = 4.65542163491e-05\nsamples = 5", shape="box"] ;
481 -> 483 ;
484 [label="X[0] <= 59.0000\nimpurity = 9.12049494844e-07\nsamples = 2", shape="box"] ;
483 -> 484 ;
485 [label="impurity = 0.0000\nsamples = 1\nvalue = [ 0.47892471]", shape="box"] ;
484 -> 485 ;
486 [label="impurity = 0.0000\nsamples = 1\nvalue = [ 0.48087412]", shape="box"] ;
484 -> 486 ;
487 [label="X[0] <= 55.0000\nimpurity = 5.08363011167e-06\nsamples = 3", shape="box"] ;
483 -> 487 ;
488 [label="impurity = 0.0000\nsamples = 2\nvalue = [ 0.49474261]", shape="box"] ;
487 -> 488 ;
489 [label="impurity = 0.0000\nsamples = 1\nvalue = [ 0.49014588]", shape="box"] ;
487 -> 489 ;
490 [label="X[1] <= 370.0000\nimpurity = 0.000523206515904\nsamples = 12", shape="box"] ;
472 -> 490 ;
491 [label="X[1] <= 350.0000\nimpurity = 0.000354302781255\nsamples = 11", shape="box"] ;
490 -> 491 ;
492 [label="X[0] <= 84.0000\nimpurity = 0.000312863435917\nsamples = 7", shape="box"] ;
491 -> 492 ;
493 [label="X[1] <= 328.0000\nimpurity = 4.41780126884e-05\nsamples = 5", shape="box"] ;
492 -> 493 ;
494 [label="impurity = 0.0000\nsamples = 1\nvalue = [ 0.52457686]", shape="box"] ;
493 -> 494 ;
495 [label="X[0] <= 81.5000\nimpurity = 2.0734058862e-05\nsamples = 4", shape="box"] ;
493 -> 495 ;
496 [label="X[1] <= 331.5000\nimpurity = 2.70594931617e-06\nsamples = 3", shape="box"] ;
495 -> 496 ;
497 [label="X[0] <= 79.0000\nimpurity = 3.28261591631e-07\nsamples = 2", shape="box"] ;
496 -> 497 ;
498 [label="impurity = 0.0000\nsamples = 1\nvalue = [ 0.50801961]", shape="box"] ;
497 -> 498 ;
499 [label="impurity = 0.0000\nsamples = 1\nvalue = [ 0.50687373]", shape="box"] ;
497 -> 499 ;
500 [label="impurity = -0.0000\nsamples = 1\nvalue = [ 0.50299686]", shape="box"] ;
496 -> 500 ;
501 [label="impurity = 0.0000\nsamples = 1\nvalue = [ 0.51976941]", shape="box"] ;
495 -> 501 ;
502 [label="X[0] <= 86.5000\nimpurity = 8.30993110726e-05\nsamples = 2", shape="box"] ;
492 -> 502 ;
503 [label="impurity = 0.0000\nsamples = 1\nvalue = [ 0.45917333]", shape="box"] ;
502 -> 503 ;
504 [label="impurity = -0.0000\nsamples = 1\nvalue = [ 0.4774051]", shape="box"] ;
502 -> 504 ;
505 [label="X[0] <= 75.0000\nimpurity = 0.000190693750736\nsamples = 4", shape="box"] ;
491 -> 505 ;
506 [label="impurity = 0.0000\nsamples = 2\nvalue = [ 0.50949373]", shape="box"] ;
505 -> 506 ;
507 [label="X[1] <= 367.5000\nimpurity = 0.000148162923183\nsamples = 2", shape="box"] ;
505 -> 507 ;
508 [label="impurity = 0.0000\nsamples = 1\nvalue = [ 0.52148157]", shape="box"] ;
507 -> 508 ;
509 [label="impurity = 0.0000\nsamples = 1\nvalue = [ 0.54730275]", shape="box"] ;
507 -> 509 ;
510 [label="impurity = 0.0000\nsamples = 1\nvalue = [ 0.4626949]", shape="box"] ;
490 -> 510 ;
511 [label="X[1] <= 377.5000\nimpurity = 0.000408529488915\nsamples = 5", shape="box"] ;
471 -> 511 ;
512 [label="X[0] <= 40.5000\nimpurity = 0.000377594867303\nsamples = 3", shape="box"] ;
511 -> 512 ;
513 [label="impurity = 0.0000\nsamples = 1\nvalue = [ 0.52799333]", shape="box"] ;
512 -> 513 ;
514 [label="X[1] <= 376.5000\nimpurity = 3.43395999998e-05\nsamples = 2", shape="box"] ;
512 -> 514 ;
515 [label="impurity = 0.0000\nsamples = 1\nvalue = [ 0.49491647]", shape="box"] ;
514 -> 515 ;
516 [label="impurity = 0.0000\nsamples = 1\nvalue = [ 0.48319647]", shape="box"] ;
514 -> 516 ;
517 [label="X[0] <= 77.0000\nimpurity = 5.42677777715e-07\nsamples = 2", shape="box"] ;
511 -> 517 ;
518 [label="impurity = 0.0000\nsamples = 1\nvalue = [ 0.53922157]", shape="box"] ;
517 -> 518 ;
519 [label="impurity = 0.0000\nsamples = 1\nvalue = [ 0.53774824]", shape="box"] ;
517 -> 519 ;
520 [label="impurity = -0.0000\nsamples = 1\nvalue = [ 0.46415412]", shape="box"] ;
470 -> 520 ;
521 [label="X[1] <= 292.5000\nimpurity = 0.0160615472313\nsamples = 31", shape="box"] ;
381 -> 521 ;
522 [label="X[0] <= 101.5000\nimpurity = 0.00554654078473\nsamples = 13", shape="box"] ;
521 -> 522 ;
523 [label="X[1] <= 255.5000\nimpurity = 0.000883322356192\nsamples = 4", shape="box"] ;
522 -> 523 ;
524 [label="impurity = 0.0000\nsamples = 1\nvalue = [ 0.2926949]", shape="box"] ;
523 -> 524 ;
525 [label="X[1] <= 270.5000\nimpurity = 0.000307566419254\nsamples = 3", shape="box"] ;
523 -> 525 ;
526 [label="impurity = 0.0000\nsamples = 1\nvalue = [ 0.20499804]", shape="box"] ;
525 -> 526 ;
527 [label="X[1] <= 280.5000\nimpurity = 4.5362501226e-05\nsamples = 2", shape="box"] ;
525 -> 527 ;
528 [label="impurity = 0.0000\nsamples = 1\nvalue = [ 0.24870078]", shape="box"] ;
527 -> 528 ;
529 [label="impurity = -0.0000\nsamples = 1\nvalue = [ 0.23441333]", shape="box"] ;
527 -> 529 ;
530 [label="X[1] <= 226.5000\nimpurity = 0.00568086285848\nsamples = 9", shape="box"] ;
522 -> 530 ;
531 [label="impurity = 0.0000\nsamples = 1\nvalue = [ 0.24227216]", shape="box"] ;
530 -> 531 ;
532 [label="X[0] <= 120.5000\nimpurity = 0.00552531730678\nsamples = 8", shape="box"] ;
530 -> 532 ;
533 [label="X[1] <= 263.0000\nimpurity = 0.00203010164018\nsamples = 6", shape="box"] ;
532 -> 533 ;
534 [label="X[1] <= 252.5000\nimpurity = 0.000284085549182\nsamples = 2", shape="box"] ;
533 -> 534 ;
535 [label="impurity = 0.0000\nsamples = 1\nvalue = [ 0.25036824]", shape="box"] ;
534 -> 535 ;
536 [label="impurity = 0.0000\nsamples = 1\nvalue = [ 0.28612275]", shape="box"] ;
534 -> 536 ;
537 [label="X[1] <= 277.5000\nimpurity = 0.00236301694364\nsamples = 4", shape="box"] ;
533 -> 537 ;
538 [label="X[1] <= 266.5000\nimpurity = 4.68741595155e-05\nsamples = 2", shape="box"] ;
537 -> 538 ;
539 [label="impurity = 0.0000\nsamples = 1\nvalue = [ 0.37606588]", shape="box"] ;
538 -> 539 ;
540 [label="impurity = -0.0000\nsamples = 1\nvalue = [ 0.38975882]", shape="box"] ;
538 -> 540 ;
541 [label="X[0] <= 117.0000\nimpurity = 6.51300002884e-06\nsamples = 2", shape="box"] ;
537 -> 541 ;
542 [label="impurity = 0.0000\nsamples = 1\nvalue = [ 0.27580941]", shape="box"] ;
541 -> 542 ;
543 [label="impurity = 0.0000\nsamples = 1\nvalue = [ 0.28170314]", shape="box"] ;
541 -> 543 ;
544 [label="X[0] <= 121.5000\nimpurity = 0.00026171626436\nsamples = 2", shape="box"] ;
532 -> 544 ;
545 [label="impurity = 0.0000\nsamples = 1\nvalue = [ 0.44504]", shape="box"] ;
544 -> 545 ;
546 [label="impurity = 0.0000\nsamples = 1\nvalue = [ 0.47739529]", shape="box"] ;
544 -> 546 ;
547 [label="X[0] <= 94.5000\nimpurity = 0.0183398924052\nsamples = 18", shape="box"] ;
521 -> 547 ;
548 [label="X[1] <= 352.5000\nimpurity = 0.031240327546\nsamples = 2", shape="box"] ;
547 -> 548 ;
549 [label="impurity = 0.0000\nsamples = 1\nvalue = [ 0.18099255]", shape="box"] ;
548 -> 549 ;
550 [label="impurity = 0.0000\nsamples = 1\nvalue = [ 0.55593451]", shape="box"] ;
548 -> 550 ;
551 [label="X[1] <= 379.0000\nimpurity = 0.00787455647925\nsamples = 16", shape="box"] ;
547 -> 551 ;
552 [label="X[1] <= 348.0000\nimpurity = 0.0026020961811\nsamples = 15", shape="box"] ;
551 -> 552 ;
553 [label="X[0] <= 112.5000\nimpurity = 0.00156423715399\nsamples = 11", shape="box"] ;
552 -> 553 ;
554 [label="X[0] <= 95.5000\nimpurity = 0.000836213911394\nsamples = 9", shape="box"] ;
553 -> 554 ;
555 [label="X[1] <= 324.0000\nimpurity = 0.000207207557439\nsamples = 2", shape="box"] ;
554 -> 555 ;
556 [label="impurity = 0.0000\nsamples = 1\nvalue = [ 0.11742902]", shape="box"] ;
555 -> 556 ;
557 [label="impurity = 0.0000\nsamples = 1\nvalue = [ 0.14621843]", shape="box"] ;
555 -> 557 ;
558 [label="X[0] <= 102.5000\nimpurity = 0.000912400890974\nsamples = 7", shape="box"] ;
554 -> 558 ;
559 [label="X[0] <= 97.0000\nimpurity = 0.000210805866482\nsamples = 4", shape="box"] ;
558 -> 559 ;
560 [label="impurity = 0.0000\nsamples = 1\nvalue = [ 0.15442745]", shape="box"] ;
559 -> 560 ;
561 [label="X[0] <= 99.5000\nimpurity = 0.000150803051168\nsamples = 3", shape="box"] ;
559 -> 561 ;
562 [label="X[1] <= 312.5000\nimpurity = 8.61710269127e-06\nsamples = 2", shape="box"] ;
561 -> 562 ;
563 [label="impurity = 0.0000\nsamples = 1\nvalue = [ 0.18239922]", shape="box"] ;
562 -> 563 ;
564 [label="impurity = -0.0000\nsamples = 1\nvalue = [ 0.1882702]", shape="box"] ;
562 -> 564 ;
565 [label="impurity = 0.0000\nsamples = 1\nvalue = [ 0.15978549]", shape="box"] ;
561 -> 565 ;
566 [label="X[0] <= 106.0000\nimpurity = 0.00148932525963\nsamples = 3", shape="box"] ;
558 -> 566 ;
567 [label="X[1] <= 325.5000\nimpurity = 0.000947456682968\nsamples = 2", shape="box"] ;
566 -> 567 ;
568 [label="impurity = 0.0000\nsamples = 1\nvalue = [ 0.14353373]", shape="box"] ;
567 -> 568 ;
569 [label="impurity = 0.0000\nsamples = 1\nvalue = [ 0.08197216]", shape="box"] ;
567 -> 569 ;
570 [label="impurity = 0.0000\nsamples = 1\nvalue = [ 0.1764898]", shape="box"] ;
566 -> 570 ;
571 [label="X[0] <= 119.5000\nimpurity = 0.00134338060269\nsamples = 2", shape="box"] ;
553 -> 571 ;
572 [label="impurity = 0.0000\nsamples = 1\nvalue = [ 0.26187216]", shape="box"] ;
571 -> 572 ;
573 [label="impurity = -0.0000\nsamples = 1\nvalue = [ 0.18856784]", shape="box"] ;
571 -> 573 ;
574 [label="X[1] <= 374.0000\nimpurity = 0.000816238963514\nsamples = 4", shape="box"] ;
552 -> 574 ;
575 [label="X[0] <= 118.0000\nimpurity = 0.000180891593797\nsamples = 3", shape="box"] ;
574 -> 575 ;
576 [label="X[1] <= 360.0000\nimpurity = 1.58118296809e-06\nsamples = 2", shape="box"] ;
575 -> 576 ;
577 [label="impurity = 0.0000\nsamples = 1\nvalue = [ 0.08837882]", shape="box"] ;
576 -> 577 ;
578 [label="impurity = 0.0000\nsamples = 1\nvalue = [ 0.09089373]", shape="box"] ;
576 -> 578 ;
579 [label="impurity = 0.0000\nsamples = 1\nvalue = [ 0.11808392]", shape="box"] ;
575 -> 579 ;
580 [label="impurity = 0.0000\nsamples = 1\nvalue = [ 0.03887176]", shape="box"] ;
574 -> 580 ;
581 [label="impurity = 0.0000\nsamples = 1\nvalue = [ 0.50048196]", shape="box"] ;
551 -> 581 ;
582 [label="X[0] <= 69.0000\nimpurity = 0.00241300745756\nsamples = 141", shape="box"] ;
100 -> 582 ;
583 [label="X[0] <= 37.5000\nimpurity = 0.00127322719258\nsamples = 80", shape="box"] ;
582 -> 583 ;
584 [label="X[1] <= 506.5000\nimpurity = 0.00053059782167\nsamples = 28", shape="box"] ;
583 -> 584 ;
585 [label="X[1] <= 439.0000\nimpurity = 0.000351273796191\nsamples = 13", shape="box"] ;
584 -> 585 ;
586 [label="X[1] <= 392.0000\nimpurity = 0.000161893264304\nsamples = 4", shape="box"] ;
585 -> 586 ;
587 [label="impurity = 0.0000\nsamples = 1\nvalue = [ 0.48907529]", shape="box"] ;
586 -> 587 ;
588 [label="X[1] <= 413.5000\nimpurity = 7.17243107555e-05\nsamples = 3", shape="box"] ;
586 -> 588 ;
589 [label="X[0] <= 34.5000\nimpurity = 9.22870653167e-06\nsamples = 2", shape="box"] ;
588 -> 589 ;
590 [label="impurity = 0.0000\nsamples = 1\nvalue = [ 0.46606667]", shape="box"] ;
589 -> 590 ;
591 [label="impurity = 0.0000\nsamples = 1\nvalue = [ 0.45962235]", shape="box"] ;
589 -> 591 ;
592 [label="impurity = 0.0000\nsamples = 1\nvalue = [ 0.48036118]", shape="box"] ;
588 -> 592 ;
593 [label="X[0] <= 30.5000\nimpurity = 0.000136587292686\nsamples = 9", shape="box"] ;
585 -> 593 ;
594 [label="X[1] <= 461.0000\nimpurity = 0.000127914373279\nsamples = 7", shape="box"] ;
593 -> 594 ;
595 [label="impurity = 0.0000\nsamples = 1\nvalue = [ 0.4526502]", shape="box"] ;
594 -> 595 ;
596 [label="X[1] <= 480.0000\nimpurity = 0.000102924130089\nsamples = 6", shape="box"] ;
594 -> 596 ;
597 [label="X[1] <= 478.0000\nimpurity = 6.84645105725e-06\nsamples = 2", shape="box"] ;
596 -> 597 ;
598 [label="impurity = 0.0000\nsamples = 1\nvalue = [ 0.42329451]", shape="box"] ;
597 -> 598 ;
599 [label="impurity = -0.0000\nsamples = 1\nvalue = [ 0.4288451]", shape="box"] ;
597 -> 599 ;
600 [label="X[1] <= 503.0000\nimpurity = 8.94679372549e-05\nsamples = 4", shape="box"] ;
596 -> 600 ;
601 [label="X[0] <= 23.0000\nimpurity = 5.71831274439e-05\nsamples = 3", shape="box"] ;
600 -> 601 ;
602 [label="X[1] <= 491.5000\nimpurity = 5.8077527105e-06\nsamples = 2", shape="box"] ;
601 -> 602 ;
603 [label="impurity = -0.0000\nsamples = 1\nvalue = [ 0.44595294]", shape="box"] ;
602 -> 603 ;
604 [label="impurity = 0.0000\nsamples = 1\nvalue = [ 0.45151843]", shape="box"] ;
602 -> 604 ;
605 [label="impurity = 0.0000\nsamples = 1\nvalue = [ 0.43251373]", shape="box"] ;
601 -> 605 ;
606 [label="impurity = -0.0000\nsamples = 1\nvalue = [ 0.42200078]", shape="box"] ;
600 -> 606 ;
607 [label="impurity = -0.0000\nsamples = 2\nvalue = [ 0.45234471]", shape="box"] ;
593 -> 607 ;
608 [label="X[0] <= 29.5000\nimpurity = 0.000550336259178\nsamples = 15", shape="box"] ;
584 -> 608 ;
609 [label="X[0] <= 23.5000\nimpurity = 0.000335946996695\nsamples = 8", shape="box"] ;
608 -> 609 ;
610 [label="X[1] <= 553.5000\nimpurity = 0.000125099458547\nsamples = 4", shape="box"] ;
609 -> 610 ;
611 [label="impurity = 0.0000\nsamples = 1\nvalue = [ 0.49253569]", shape="box"] ;
610 -> 611 ;
612 [label="X[1] <= 588.5000\nimpurity = 2.20294373702e-05\nsamples = 3", shape="box"] ;
610 -> 612 ;
613 [label="X[1] <= 568.0000\nimpurity = 1.4512314033e-05\nsamples = 2", shape="box"] ;
612 -> 613 ;
614 [label="impurity = 0.0000\nsamples = 1\nvalue = [ 0.46315804]", shape="box"] ;
613 -> 614 ;
615 [label="impurity = -0.0000\nsamples = 1\nvalue = [ 0.47123922]", shape="box"] ;
613 -> 615 ;
616 [label="impurity = -0.0000\nsamples = 1\nvalue = [ 0.46083569]", shape="box"] ;
612 -> 616 ;
617 [label="X[1] <= 541.0000\nimpurity = 0.000366126103413\nsamples = 4", shape="box"] ;
609 -> 617 ;
618 [label="impurity = 0.0000\nsamples = 1\nvalue = [ 0.46415412]", shape="box"] ;
617 -> 618 ;
619 [label="X[0] <= 28.5000\nimpurity = 0.000235607922568\nsamples = 3", shape="box"] ;
617 -> 619 ;
620 [label="X[1] <= 569.5000\nimpurity = 7.19686308659e-07\nsamples = 2", shape="box"] ;
619 -> 620 ;
621 [label="impurity = 0.0000\nsamples = 1\nvalue = [ 0.50692627]", shape="box"] ;
620 -> 621 ;
622 [label="impurity = 0.0000\nsamples = 1\nvalue = [ 0.50512667]", shape="box"] ;
620 -> 622 ;
623 [label="impurity = 0.0000\nsamples = 1\nvalue = [ 0.47091882]", shape="box"] ;
619 -> 623 ;
624 [label="X[1] <= 596.5000\nimpurity = 0.000463953445316\nsamples = 7", shape="box"] ;
608 -> 624 ;
625 [label="X[1] <= 581.0000\nimpurity = 0.000213196147946\nsamples = 6", shape="box"] ;
624 -> 625 ;
626 [label="X[1] <= 515.5000\nimpurity = 1.46692847196e-05\nsamples = 4", shape="box"] ;
625 -> 626 ;
627 [label="impurity = 0.0000\nsamples = 1\nvalue = [ 0.47091882]", shape="box"] ;
626 -> 627 ;
628 [label="X[0] <= 33.5000\nimpurity = 1.54057267829e-06\nsamples = 3", shape="box"] ;
626 -> 628 ;
629 [label="X[1] <= 573.0000\nimpurity = 7.19503114172e-07\nsamples = 2", shape="box"] ;
628 -> 629 ;
630 [label="impurity = 0.0000\nsamples = 1\nvalue = [ 0.46162431]", shape="box"] ;
629 -> 630 ;
631 [label="impurity = 0.0000\nsamples = 1\nvalue = [ 0.46332078]", shape="box"] ;
629 -> 631 ;
632 [label="impurity = -0.0000\nsamples = 1\nvalue = [ 0.46018784]", shape="box"] ;
628 -> 632 ;
633 [label="X[0] <= 35.5000\nimpurity = 0.000111407425371\nsamples = 2", shape="box"] ;
625 -> 633 ;
634 [label="impurity = 0.0000\nsamples = 1\nvalue = [ 0.4335098]", shape="box"] ;
633 -> 634 ;
635 [label="impurity = 0.0000\nsamples = 1\nvalue = [ 0.46183176]", shape="box"] ;
633 -> 635 ;
636 [label="impurity = -0.0000\nsamples = 1\nvalue = [ 0.49840667]", shape="box"] ;
624 -> 636 ;
637 [label="X[1] <= 598.5000\nimpurity = 0.0013313853657\nsamples = 52", shape="box"] ;
583 -> 637 ;
638 [label="X[1] <= 403.5000\nimpurity = 0.00120382371772\nsamples = 50", shape="box"] ;
637 -> 638 ;
639 [label="X[1] <= 385.0000\nimpurity = 0.000200967344406\nsamples = 4", shape="box"] ;
638 -> 639 ;
640 [label="X[0] <= 60.5000\nimpurity = 0.000147329596309\nsamples = 2", shape="box"] ;
639 -> 640 ;
641 [label="impurity = 0.0000\nsamples = 1\nvalue = [ 0.49467843]", shape="box"] ;
640 -> 641 ;
642 [label="impurity = 0.0000\nsamples = 1\nvalue = [ 0.5227098]", shape="box"] ;
640 -> 642 ;
643 [label="X[1] <= 394.5000\nimpurity = 4.00921264129e-05\nsamples = 2", shape="box"] ;
639 -> 643 ;
644 [label="impurity = 0.0000\nsamples = 1\nvalue = [ 0.54007059]", shape="box"] ;
643 -> 644 ;
645 [label="impurity = 0.0000\nsamples = 1\nvalue = [ 0.52544784]", shape="box"] ;
643 -> 645 ;
646 [label="X[1] <= 436.0000\nimpurity = 0.00118151558386\nsamples = 46", shape="box"] ;
638 -> 646 ;
647 [label="X[0] <= 44.0000\nimpurity = 0.00162959714338\nsamples = 10", shape="box"] ;
646 -> 647 ;
648 [label="X[1] <= 413.0000\nimpurity = 0.00202558457006\nsamples = 2", shape="box"] ;
647 -> 648 ;
649 [label="impurity = 0.0000\nsamples = 1\nvalue = [ 0.40049333]", shape="box"] ;
648 -> 649 ;
650 [label="impurity = 0.0000\nsamples = 1\nvalue = [ 0.52125843]", shape="box"] ;
648 -> 650 ;
651 [label="X[1] <= 425.5000\nimpurity = 0.000777161141051\nsamples = 8", shape="box"] ;
647 -> 651 ;
652 [label="X[0] <= 62.0000\nimpurity = 0.000521863569738\nsamples = 6", shape="box"] ;
651 -> 652 ;
653 [label="X[0] <= 50.5000\nimpurity = 0.000204236316587\nsamples = 5", shape="box"] ;
652 -> 653 ;
654 [label="X[0] <= 49.5000\nimpurity = 2.70318298498e-06\nsamples = 2", shape="box"] ;
653 -> 654 ;
655 [label="impurity = 0.0000\nsamples = 1\nvalue = [ 0.45203922]", shape="box"] ;
654 -> 655 ;
656 [label="impurity = -0.0000\nsamples = 1\nvalue = [ 0.45539529]", shape="box"] ;
654 -> 656 ;
657 [label="X[1] <= 409.5000\nimpurity = 0.000389161134675\nsamples = 3", shape="box"] ;
653 -> 657 ;
658 [label="impurity = 0.0000\nsamples = 1\nvalue = [ 0.44164353]", shape="box"] ;
657 -> 658 ;
659 [label="X[0] <= 53.5000\nimpurity = 2.56036e-05\nsamples = 2", shape="box"] ;
657 -> 659 ;
660 [label="impurity = 0.0000\nsamples = 1\nvalue = [ 0.48762314]", shape="box"] ;
659 -> 660 ;
661 [label="impurity = 0.0000\nsamples = 1\nvalue = [ 0.47750314]", shape="box"] ;
659 -> 661 ;
662 [label="impurity = 0.0000\nsamples = 1\nvalue = [ 0.5179102]", shape="box"] ;
652 -> 662 ;
663 [label="X[0] <= 62.0000\nimpurity = 0.000590277851288\nsamples = 2", shape="box"] ;
651 -> 663 ;
664 [label="impurity = 0.0000\nsamples = 1\nvalue = [ 0.44726941]", shape="box"] ;
663 -> 664 ;
665 [label="impurity = -0.0000\nsamples = 1\nvalue = [ 0.39573059]", shape="box"] ;
663 -> 665 ;
666 [label="X[0] <= 39.5000\nimpurity = 0.000901973016257\nsamples = 36", shape="box"] ;
646 -> 666 ;
667 [label="X[1] <= 500.0000\nimpurity = 0.00132199908818\nsamples = 5", shape="box"] ;
666 -> 667 ;
668 [label="impurity = 0.0000\nsamples = 1\nvalue = [ 0.39904196]", shape="box"] ;
667 -> 668 ;
669 [label="X[1] <= 511.5000\nimpurity = 0.00052870674639\nsamples = 4", shape="box"] ;
667 -> 669 ;
670 [label="impurity = 0.0000\nsamples = 1\nvalue = [ 0.45155608]", shape="box"] ;
669 -> 670 ;
671 [label="X[1] <= 569.0000\nimpurity = 0.00043055594159\nsamples = 3", shape="box"] ;
669 -> 671 ;
672 [label="X[1] <= 530.0000\nimpurity = 0.000156823207518\nsamples = 2", shape="box"] ;
671 -> 672 ;
673 [label="impurity = 0.0000\nsamples = 1\nvalue = [ 0.4868502]", shape="box"] ;
672 -> 673 ;
674 [label="impurity = 0.0000\nsamples = 1\nvalue = [ 0.51341529]", shape="box"] ;
672 -> 674 ;
675 [label="impurity = 0.0000\nsamples = 1\nvalue = [ 0.45485176]", shape="box"] ;
671 -> 675 ;
676 [label="X[0] <= 41.0000\nimpurity = 0.000732480285419\nsamples = 31", shape="box"] ;
666 -> 676 ;
677 [label="impurity = 0.0000\nsamples = 1\nvalue = [ 0.52369098]", shape="box"] ;
676 -> 677 ;
678 [label="X[0] <= 47.5000\nimpurity = 0.0007374582347\nsamples = 30", shape="box"] ;
676 -> 678 ;
679 [label="X[1] <= 590.0000\nimpurity = 0.00112185662059\nsamples = 6", shape="box"] ;
678 -> 679 ;
680 [label="X[1] <= 553.0000\nimpurity = 0.000941055376566\nsamples = 5", shape="box"] ;
679 -> 680 ;
681 [label="X[0] <= 45.5000\nimpurity = 0.000332938967253\nsamples = 3", shape="box"] ;
680 -> 681 ;
682 [label="X[1] <= 501.0000\nimpurity = 2.01301345636e-05\nsamples = 2", shape="box"] ;
681 -> 682 ;
683 [label="impurity = 0.0000\nsamples = 1\nvalue = [ 0.46997255]", shape="box"] ;
682 -> 683 ;
684 [label="impurity = -0.0000\nsamples = 1\nvalue = [ 0.4794902]", shape="box"] ;
682 -> 684 ;
685 [label="impurity = 0.0000\nsamples = 1\nvalue = [ 0.43975373]", shape="box"] ;
681 -> 685 ;
686 [label="X[0] <= 46.0000\nimpurity = 0.000229207725644\nsamples = 2", shape="box"] ;
680 -> 686 ;
687 [label="impurity = 0.0000\nsamples = 1\nvalue = [ 0.50245412]", shape="box"] ;
686 -> 687 ;
688 [label="impurity = -0.0000\nsamples = 1\nvalue = [ 0.53273333]", shape="box"] ;
686 -> 688 ;
689 [label="impurity = 0.0000\nsamples = 1\nvalue = [ 0.42542863]", shape="box"] ;
679 -> 689 ;
690 [label="X[1] <= 482.5000\nimpurity = 0.000491273302316\nsamples = 24", shape="box"] ;
678 -> 690 ;
691 [label="X[1] <= 462.5000\nimpurity = 0.000562577431622\nsamples = 11", shape="box"] ;
690 -> 691 ;
692 [label="X[1] <= 452.5000\nimpurity = 0.000144587947648\nsamples = 5", shape="box"] ;
691 -> 692 ;
693 [label="X[0] <= 61.5000\nimpurity = 7.88744679739e-05\nsamples = 3", shape="box"] ;
692 -> 693 ;
694 [label="X[1] <= 443.0000\nimpurity = 1.79279154513e-05\nsamples = 2", shape="box"] ;
693 -> 694 ;
695 [label="impurity = 0.0000\nsamples = 1\nvalue = [ 0.51646588]", shape="box"] ;
694 -> 695 ;
696 [label="impurity = 0.0000\nsamples = 1\nvalue = [ 0.52544784]", shape="box"] ;
694 -> 696 ;
697 [label="impurity = 0.0000\nsamples = 1\nvalue = [ 0.50077961]", shape="box"] ;
693 -> 697 ;
698 [label="X[1] <= 460.0000\nimpurity = 7.44085525507e-05\nsamples = 2", shape="box"] ;
692 -> 698 ;
699 [label="impurity = 0.0000\nsamples = 1\nvalue = [ 0.48091882]", shape="box"] ;
698 -> 699 ;
700 [label="impurity = 0.0000\nsamples = 1\nvalue = [ 0.50248392]", shape="box"] ;
698 -> 700 ;
701 [label="X[1] <= 478.5000\nimpurity = 0.000530717165473\nsamples = 6", shape="box"] ;
691 -> 701 ;
702 [label="X[1] <= 474.5000\nimpurity = 0.000339467469982\nsamples = 5", shape="box"] ;
701 -> 702 ;
703 [label="X[1] <= 465.0000\nimpurity = 0.000136127986811\nsamples = 4", shape="box"] ;
702 -> 703 ;
704 [label="impurity = 0.0000\nsamples = 1\nvalue = [ 0.45934667]", shape="box"] ;
703 -> 704 ;
705 [label="X[0] <= 55.0000\nimpurity = 9.24370230257e-06\nsamples = 3", shape="box"] ;
703 -> 705 ;
706 [label="impurity = 0.0000\nsamples = 1\nvalue = [ 0.47838902]", shape="box"] ;
705 -> 706 ;
707 [label="X[1] <= 469.5000\nimpurity = 1.04925182626e-07\nsamples = 2", shape="box"] ;
705 -> 707 ;
708 [label="impurity = 0.0000\nsamples = 1\nvalue = [ 0.4844902]", shape="box"] ;
707 -> 708 ;
709 [label="impurity = 0.0000\nsamples = 1\nvalue = [ 0.48513804]", shape="box"] ;
707 -> 709 ;
710 [label="impurity = 0.0000\nsamples = 1\nvalue = [ 0.51368314]", shape="box"] ;
702 -> 710 ;
711 [label="impurity = 0.0000\nsamples = 1\nvalue = [ 0.43581725]", shape="box"] ;
701 -> 711 ;
712 [label="X[0] <= 48.5000\nimpurity = 0.000305589717016\nsamples = 13", shape="box"] ;
690 -> 712 ;
713 [label="impurity = 0.0000\nsamples = 1\nvalue = [ 0.55538392]", shape="box"] ;
712 -> 713 ;
714 [label="X[0] <= 62.5000\nimpurity = 0.00021496257365\nsamples = 12", shape="box"] ;
712 -> 714 ;
715 [label="X[0] <= 49.5000\nimpurity = 0.000136338265779\nsamples = 11", shape="box"] ;
714 -> 715 ;
716 [label="X[1] <= 501.5000\nimpurity = 1.47271931651e-05\nsamples = 2", shape="box"] ;
715 -> 716 ;
717 [label="impurity = 0.0000\nsamples = 1\nvalue = [ 0.49182824]", shape="box"] ;
716 -> 717 ;
718 [label="impurity = 0.0000\nsamples = 1\nvalue = [ 0.49996902]", shape="box"] ;
716 -> 718 ;
719 [label="X[1] <= 514.0000\nimpurity = 0.000112313528662\nsamples = 9", shape="box"] ;
715 -> 719 ;
720 [label="X[1] <= 488.5000\nimpurity = 4.53368042495e-05\nsamples = 4", shape="box"] ;
719 -> 720 ;
721 [label="impurity = 0.0000\nsamples = 1\nvalue = [ 0.51086275]", shape="box"] ;
720 -> 721 ;
722 [label="X[0] <= 61.5000\nimpurity = 7.423371434e-06\nsamples = 3", shape="box"] ;
720 -> 722 ;
723 [label="X[0] <= 59.0000\nimpurity = 1.06255802468e-06\nsamples = 2", shape="box"] ;
722 -> 723 ;
724 [label="impurity = 0.0000\nsamples = 1\nvalue = [ 0.52160157]", shape="box"] ;
723 -> 724 ;
725 [label="impurity = 0.0000\nsamples = 1\nvalue = [ 0.52378824]", shape="box"] ;
723 -> 725 ;
726 [label="impurity = 0.0000\nsamples = 1\nvalue = [ 0.52827529]", shape="box"] ;
722 -> 726 ;
727 [label="X[1] <= 530.5000\nimpurity = 0.000111824168052\nsamples = 5", shape="box"] ;
719 -> 727 ;
728 [label="impurity = 0.0000\nsamples = 1\nvalue = [ 0.48762392]", shape="box"] ;
727 -> 728 ;
729 [label="X[1] <= 565.5000\nimpurity = 1.58406963091e-05\nsamples = 4", shape="box"] ;
727 -> 729 ;
730 [label="impurity = 0.0000\nsamples = 2\nvalue = [ 0.51550776]", shape="box"] ;
729 -> 730 ;
731 [label="X[0] <= 55.5000\nimpurity = 2.48076893511e-06\nsamples = 2", shape="box"] ;
729 -> 731 ;
732 [label="impurity = 0.0000\nsamples = 1\nvalue = [ 0.50976157]", shape="box"] ;
731 -> 732 ;
733 [label="impurity = 0.0000\nsamples = 1\nvalue = [ 0.50642039]", shape="box"] ;
731 -> 733 ;
734 [label="impurity = -0.0000\nsamples = 1\nvalue = [ 0.46602118]", shape="box"] ;
714 -> 734 ;
735 [label="X[0] <= 56.5000\nimpurity = 7.17593136088e-05\nsamples = 2", shape="box"] ;
637 -> 735 ;
736 [label="impurity = 0.0000\nsamples = 1\nvalue = [ 0.42438706]", shape="box"] ;
735 -> 736 ;
737 [label="impurity = 0.0000\nsamples = 1\nvalue = [ 0.4439502]", shape="box"] ;
735 -> 737 ;
738 [label="X[0] <= 98.5000\nimpurity = 0.00160626431944\nsamples = 61", shape="box"] ;
582 -> 738 ;
739 [label="X[1] <= 564.5000\nimpurity = 0.00140355462693\nsamples = 34", shape="box"] ;
738 -> 739 ;
740 [label="X[1] <= 553.5000\nimpurity = 0.00122060200699\nsamples = 26", shape="box"] ;
739 -> 740 ;
741 [label="X[1] <= 494.0000\nimpurity = 0.00123741173922\nsamples = 24", shape="box"] ;
740 -> 741 ;
742 [label="X[0] <= 75.5000\nimpurity = 0.000859725900685\nsamples = 18", shape="box"] ;
741 -> 742 ;
743 [label="X[1] <= 427.5000\nimpurity = 0.000703138993163\nsamples = 3", shape="box"] ;
742 -> 743 ;
744 [label="X[0] <= 74.5000\nimpurity = 9.55775114186e-05\nsamples = 2", shape="box"] ;
743 -> 744 ;
745 [label="impurity = 0.0000\nsamples = 1\nvalue = [ 0.53385647]", shape="box"] ;
744 -> 745 ;
746 [label="impurity = -0.0000\nsamples = 1\nvalue = [ 0.51311765]", shape="box"] ;
744 -> 746 ;
747 [label="impurity = 0.0000\nsamples = 1\nvalue = [ 0.57190353]", shape="box"] ;
743 -> 747 ;
748 [label="X[0] <= 78.5000\nimpurity = 0.000655318043545\nsamples = 15", shape="box"] ;
742 -> 748 ;
749 [label="X[1] <= 478.5000\nimpurity = 0.00117100087659\nsamples = 2", shape="box"] ;
748 -> 749 ;
750 [label="impurity = 0.0000\nsamples = 1\nvalue = [ 0.44976863]", shape="box"] ;
749 -> 750 ;
751 [label="impurity = 0.0000\nsamples = 1\nvalue = [ 0.52879608]", shape="box"] ;
749 -> 751 ;
752 [label="X[0] <= 81.5000\nimpurity = 0.000348600598315\nsamples = 13", shape="box"] ;
748 -> 752 ;
753 [label="X[1] <= 394.0000\nimpurity = 1.60497387405e-05\nsamples = 2", shape="box"] ;
752 -> 753 ;
754 [label="impurity = 0.0000\nsamples = 1\nvalue = [ 0.52436157]", shape="box"] ;
753 -> 754 ;
755 [label="impurity = 0.0000\nsamples = 1\nvalue = [ 0.51618392]", shape="box"] ;
753 -> 755 ;
756 [label="X[0] <= 84.5000\nimpurity = 0.000378285039536\nsamples = 11", shape="box"] ;
752 -> 756 ;
757 [label="X[1] <= 400.0000\nimpurity = 2.94851767781e-05\nsamples = 2", shape="box"] ;
756 -> 757 ;
758 [label="impurity = 0.0000\nsamples = 1\nvalue = [ 0.47581451]", shape="box"] ;
757 -> 758 ;
759 [label="impurity = 0.0000\nsamples = 1\nvalue = [ 0.48733333]", shape="box"] ;
757 -> 759 ;
760 [label="X[1] <= 485.0000\nimpurity = 0.000346049267968\nsamples = 9", shape="box"] ;
756 -> 760 ;
761 [label="X[1] <= 473.0000\nimpurity = 0.000390488593037\nsamples = 7", shape="box"] ;
760 -> 761 ;
762 [label="X[0] <= 91.0000\nimpurity = 0.000266015998385\nsamples = 6", shape="box"] ;
761 -> 762 ;
763 [label="X[0] <= 87.5000\nimpurity = 1.42898823913e-05\nsamples = 2", shape="box"] ;
762 -> 763 ;
764 [label="impurity = 0.0000\nsamples = 1\nvalue = [ 0.52762745]", shape="box"] ;
763 -> 764 ;
765 [label="impurity = -0.0000\nsamples = 1\nvalue = [ 0.53518784]", shape="box"] ;
763 -> 765 ;
766 [label="X[1] <= 411.0000\nimpurity = 0.000181766528587\nsamples = 4", shape="box"] ;
762 -> 766 ;
767 [label="impurity = 0.0000\nsamples = 1\nvalue = [ 0.53153412]", shape="box"] ;
766 -> 767 ;
768 [label="X[0] <= 97.0000\nimpurity = 5.51097304483e-05\nsamples = 3", shape="box"] ;
766 -> 768 ;
769 [label="X[1] <= 437.0000\nimpurity = 3.87256268955e-06\nsamples = 2", shape="box"] ;
768 -> 769 ;
770 [label="impurity = 0.0000\nsamples = 1\nvalue = [ 0.49293647]", shape="box"] ;
769 -> 770 ;
771 [label="impurity = -0.0000\nsamples = 1\nvalue = [ 0.49711098]", shape="box"] ;
769 -> 771 ;
772 [label="impurity = -0.0000\nsamples = 1\nvalue = [ 0.50915843]", shape="box"] ;
768 -> 772 ;
773 [label="impurity = -0.0000\nsamples = 1\nvalue = [ 0.55144745]", shape="box"] ;
761 -> 773 ;
774 [label="X[1] <= 491.0000\nimpurity = 3.26025622837e-05\nsamples = 2", shape="box"] ;
760 -> 774 ;
775 [label="impurity = 0.0000\nsamples = 1\nvalue = [ 0.4935098]", shape="box"] ;
774 -> 775 ;
776 [label="impurity = -0.0000\nsamples = 1\nvalue = [ 0.50883098]", shape="box"] ;
774 -> 776 ;
777 [label="X[0] <= 93.0000\nimpurity = 0.00154336560268\nsamples = 6", shape="box"] ;
741 -> 777 ;
778 [label="X[0] <= 76.5000\nimpurity = 0.000306945640365\nsamples = 4", shape="box"] ;
777 -> 778 ;
779 [label="X[1] <= 538.5000\nimpurity = 3.69777791442e-06\nsamples = 2", shape="box"] ;
778 -> 779 ;
780 [label="impurity = 0.0000\nsamples = 1\nvalue = [ 0.51654118]", shape="box"] ;
779 -> 780 ;
781 [label="impurity = -0.0000\nsamples = 1\nvalue = [ 0.51246196]", shape="box"] ;
779 -> 781 ;
782 [label="X[0] <= 86.0000\nimpurity = 2.25581225683e-05\nsamples = 2", shape="box"] ;
778 -> 782 ;
783 [label="impurity = 0.0000\nsamples = 1\nvalue = [ 0.54138706]", shape="box"] ;
782 -> 783 ;
784 [label="impurity = 0.0000\nsamples = 1\nvalue = [ 0.55146235]", shape="box"] ;
782 -> 784 ;
785 [label="X[1] <= 535.5000\nimpurity = 0.00217549079681\nsamples = 2", shape="box"] ;
777 -> 785 ;
786 [label="impurity = 0.0000\nsamples = 1\nvalue = [ 0.64165843]", shape="box"] ;
785 -> 786 ;
787 [label="impurity = 0.0000\nsamples = 1\nvalue = [ 0.54837412]", shape="box"] ;
785 -> 787 ;
788 [label="X[1] <= 559.0000\nimpurity = 2.97110496344e-05\nsamples = 2", shape="box"] ;
740 -> 788 ;
789 [label="impurity = 0.0000\nsamples = 1\nvalue = [ 0.48783922]", shape="box"] ;
788 -> 789 ;
790 [label="impurity = 0.0000\nsamples = 1\nvalue = [ 0.47693765]", shape="box"] ;
788 -> 790 ;
791 [label="X[1] <= 589.0000\nimpurity = 0.000349857085627\nsamples = 8", shape="box"] ;
739 -> 791 ;
792 [label="X[0] <= 73.0000\nimpurity = 0.000281292602008\nsamples = 6", shape="box"] ;
791 -> 792 ;
793 [label="X[0] <= 70.5000\nimpurity = 4.07376750001e-05\nsamples = 2", shape="box"] ;
792 -> 793 ;
794 [label="impurity = 0.0000\nsamples = 1\nvalue = [ 0.54594157]", shape="box"] ;
793 -> 794 ;
795 [label="impurity = 0.0000\nsamples = 1\nvalue = [ 0.56068157]", shape="box"] ;
793 -> 795 ;
796 [label="X[0] <= 86.5000\nimpurity = 0.000154043461254\nsamples = 4", shape="box"] ;
792 -> 796 ;
797 [label="X[1] <= 577.5000\nimpurity = 3.25643393878e-06\nsamples = 2", shape="box"] ;
796 -> 797 ;
798 [label="impurity = 0.0000\nsamples = 1\nvalue = [ 0.58813333]", shape="box"] ;
797 -> 798 ;
799 [label="impurity = -0.0000\nsamples = 1\nvalue = [ 0.58396588]", shape="box"] ;
797 -> 799 ;
800 [label="X[1] <= 570.0000\nimpurity = 1.53479584776e-05\nsamples = 2", shape="box"] ;
796 -> 800 ;
801 [label="impurity = 0.0000\nsamples = 1\nvalue = [ 0.56322706]", shape="box"] ;
800 -> 801 ;
802 [label="impurity = -0.0000\nsamples = 1\nvalue = [ 0.55539176]", shape="box"] ;
800 -> 802 ;
803 [label="X[1] <= 593.0000\nimpurity = 8.51846534256e-06\nsamples = 2", shape="box"] ;
791 -> 803 ;
804 [label="impurity = 0.0000\nsamples = 1\nvalue = [ 0.54056078]", shape="box"] ;
803 -> 804 ;
805 [label="impurity = -0.0000\nsamples = 1\nvalue = [ 0.53436941]", shape="box"] ;
803 -> 805 ;
806 [label="X[1] <= 598.0000\nimpurity = 0.000915525944059\nsamples = 27", shape="box"] ;
738 -> 806 ;
807 [label="X[0] <= 104.0000\nimpurity = 0.000840386649614\nsamples = 26", shape="box"] ;
806 -> 807 ;
808 [label="X[0] <= 100.0000\nimpurity = 0.000292190256869\nsamples = 6", shape="box"] ;
807 -> 808 ;
809 [label="impurity = 0.0000\nsamples = 1\nvalue = [ 0.57586275]", shape="box"] ;
808 -> 809 ;
810 [label="X[0] <= 102.5000\nimpurity = 0.000175990901349\nsamples = 5", shape="box"] ;
808 -> 810 ;
811 [label="X[1] <= 406.0000\nimpurity = 9.06676122548e-05\nsamples = 4", shape="box"] ;
810 -> 811 ;
812 [label="impurity = 0.0000\nsamples = 1\nvalue = [ 0.53382667]", shape="box"] ;
811 -> 812 ;
813 [label="X[1] <= 572.5000\nimpurity = 3.46928819512e-05\nsamples = 3", shape="box"] ;
811 -> 813 ;
814 [label="X[0] <= 101.5000\nimpurity = 1.29691903106e-06\nsamples = 2", shape="box"] ;
813 -> 814 ;
815 [label="impurity = 0.0000\nsamples = 1\nvalue = [ 0.55764667]", shape="box"] ;
814 -> 815 ;
816 [label="impurity = -0.0000\nsamples = 1\nvalue = [ 0.55536902]", shape="box"] ;
814 -> 816 ;
817 [label="impurity = -0.0000\nsamples = 1\nvalue = [ 0.5441698]", shape="box"] ;
813 -> 817 ;
818 [label="impurity = -0.0000\nsamples = 1\nvalue = [ 0.51667412]", shape="box"] ;
810 -> 818 ;
819 [label="X[1] <= 482.5000\nimpurity = 0.000882070976684\nsamples = 20", shape="box"] ;
807 -> 819 ;
820 [label="X[0] <= 123.5000\nimpurity = 0.000114727121529\nsamples = 8", shape="box"] ;
819 -> 820 ;
821 [label="X[1] <= 413.0000\nimpurity = 9.20511816396e-05\nsamples = 7", shape="box"] ;
820 -> 821 ;
822 [label="X[0] <= 110.5000\nimpurity = 3.52690204623e-05\nsamples = 2", shape="box"] ;
821 -> 822 ;
823 [label="impurity = 0.0000\nsamples = 1\nvalue = [ 0.56491647]", shape="box"] ;
822 -> 823 ;
824 [label="impurity = 0.0000\nsamples = 1\nvalue = [ 0.57751451]", shape="box"] ;
822 -> 824 ;
825 [label="X[1] <= 466.5000\nimpurity = 8.19966129565e-05\nsamples = 5", shape="box"] ;
821 -> 825 ;
826 [label="X[1] <= 446.5000\nimpurity = 4.25068653349e-05\nsamples = 3", shape="box"] ;
825 -> 826 ;
827 [label="X[0] <= 108.5000\nimpurity = 3.29588558632e-05\nsamples = 2", shape="box"] ;
826 -> 827 ;
828 [label="impurity = 0.0000\nsamples = 1\nvalue = [ 0.55201294]", shape="box"] ;
827 -> 828 ;
829 [label="impurity = 0.0000\nsamples = 1\nvalue = [ 0.54053098]", shape="box"] ;
827 -> 829 ;
830 [label="impurity = -0.0000\nsamples = 1\nvalue = [ 0.55732549]", shape="box"] ;
826 -> 830 ;
831 [label="X[0] <= 116.0000\nimpurity = 1.38262376351e-05\nsamples = 2", shape="box"] ;
825 -> 831 ;
832 [label="impurity = 0.0000\nsamples = 1\nvalue = [ 0.57280431]", shape="box"] ;
831 -> 832 ;
833 [label="impurity = -0.0000\nsamples = 1\nvalue = [ 0.56491647]", shape="box"] ;
831 -> 833 ;
834 [label="impurity = 0.0000\nsamples = 1\nvalue = [ 0.54138706]", shape="box"] ;
820 -> 834 ;
835 [label="X[0] <= 120.5000\nimpurity = 0.00113681513017\nsamples = 12", shape="box"] ;
819 -> 835 ;
836 [label="X[0] <= 118.0000\nimpurity = 0.00108349782892\nsamples = 10", shape="box"] ;
835 -> 836 ;
837 [label="X[1] <= 518.5000\nimpurity = 0.000224790269313\nsamples = 7", shape="box"] ;
836 -> 837 ;
838 [label="X[1] <= 506.5000\nimpurity = 0.000262771220988\nsamples = 3", shape="box"] ;
837 -> 838 ;
839 [label="X[1] <= 492.0000\nimpurity = 6.89006021681e-06\nsamples = 2", shape="box"] ;
838 -> 839 ;
840 [label="impurity = 0.0000\nsamples = 1\nvalue = [ 0.58479216]", shape="box"] ;
839 -> 840 ;
841 [label="impurity = -0.0000\nsamples = 1\nvalue = [ 0.57943412]", shape="box"] ;
839 -> 841 ;
842 [label="impurity = -0.0000\nsamples = 1\nvalue = [ 0.5396302]", shape="box"] ;
838 -> 842 ;
843 [label="X[1] <= 592.0000\nimpurity = 5.15339962324e-05\nsamples = 4", shape="box"] ;
837 -> 843 ;
844 [label="X[1] <= 543.0000\nimpurity = 3.00789753267e-05\nsamples = 3", shape="box"] ;
843 -> 844 ;
845 [label="impurity = 0.0000\nsamples = 1\nvalue = [ 0.58779804]", shape="box"] ;
844 -> 845 ;
846 [label="X[1] <= 574.5000\nimpurity = 6.64305140485e-06\nsamples = 2", shape="box"] ;
844 -> 846 ;
847 [label="impurity = 0.0000\nsamples = 1\nvalue = [ 0.60409451]", shape="box"] ;
846 -> 847 ;
848 [label="impurity = 0.0000\nsamples = 1\nvalue = [ 0.59765098]", shape="box"] ;
846 -> 848 ;
849 [label="impurity = -0.0000\nsamples = 1\nvalue = [ 0.58057294]", shape="box"] ;
843 -> 849 ;
850 [label="X[0] <= 119.5000\nimpurity = 0.00233835186721\nsamples = 3", shape="box"] ;
836 -> 850 ;
851 [label="impurity = 0.0000\nsamples = 1\nvalue = [ 0.48980353]", shape="box"] ;
850 -> 851 ;
852 [label="X[1] <= 513.5000\nimpurity = 0.000327633152001\nsamples = 2", shape="box"] ;
850 -> 852 ;
853 [label="impurity = 0.0000\nsamples = 1\nvalue = [ 0.5970698]", shape="box"] ;
852 -> 853 ;
854 [label="impurity = 0.0000\nsamples = 1\nvalue = [ 0.55867255]", shape="box"] ;
852 -> 854 ;
855 [label="X[1] <= 529.0000\nimpurity = 1.08730340986e-05\nsamples = 2", shape="box"] ;
835 -> 855 ;
856 [label="impurity = 0.0000\nsamples = 1\nvalue = [ 0.62141765]", shape="box"] ;
855 -> 856 ;
857 [label="impurity = 0.0000\nsamples = 1\nvalue = [ 0.61442275]", shape="box"] ;
855 -> 857 ;
858 [label="impurity = -0.0000\nsamples = 1\nvalue = [ 0.52116118]", shape="box"] ;
806 -> 858 ;
859 [label="X[1] <= 297.5000\nimpurity = 0.0304682136005\nsamples = 214", shape="box"] ;
3 -> 859 ;
860 [label="X[1] <= 236.5000\nimpurity = 0.0147946091836\nsamples = 111", shape="box"] ;
859 -> 860 ;
861 [label="X[1] <= 199.0000\nimpurity = 0.0136978824627\nsamples = 85", shape="box"] ;
860 -> 861 ;
862 [label="X[1] <= 55.0000\nimpurity = 0.00328897635681\nsamples = 67", shape="box"] ;
861 -> 862 ;
863 [label="X[0] <= 170.5000\nimpurity = 0.00473570541722\nsamples = 18", shape="box"] ;
862 -> 863 ;
864 [label="X[1] <= 11.5000\nimpurity = 0.00170626335106\nsamples = 14", shape="box"] ;
863 -> 864 ;
865 [label="X[1] <= 7.5000\nimpurity = 0.000227983824222\nsamples = 3", shape="box"] ;
864 -> 865 ;
866 [label="X[0] <= 148.0000\nimpurity = 5.46852921184e-05\nsamples = 2", shape="box"] ;
865 -> 866 ;
867 [label="impurity = 0.0000\nsamples = 1\nvalue = [ 0.51331725]", shape="box"] ;
866 -> 867 ;
868 [label="impurity = 0.0000\nsamples = 1\nvalue = [ 0.52900431]", shape="box"] ;
866 -> 868 ;
869 [label="impurity = 0.0000\nsamples = 1\nvalue = [ 0.55535333]", shape="box"] ;
865 -> 869 ;
870 [label="X[0] <= 136.0000\nimpurity = 0.00133448613062\nsamples = 11", shape="box"] ;
864 -> 870 ;
871 [label="X[1] <= 37.0000\nimpurity = 0.000864967805852\nsamples = 3", shape="box"] ;
870 -> 871 ;
872 [label="X[1] <= 32.5000\nimpurity = 0.000348027314456\nsamples = 2", shape="box"] ;
871 -> 872 ;
873 [label="impurity = 0.0000\nsamples = 1\nvalue = [ 0.63243137]", shape="box"] ;
872 -> 873 ;
874 [label="impurity = -0.0000\nsamples = 1\nvalue = [ 0.59512039]", shape="box"] ;
872 -> 874 ;
875 [label="impurity = -0.0000\nsamples = 1\nvalue = [ 0.6671451]", shape="box"] ;
871 -> 875 ;
876 [label="X[0] <= 144.0000\nimpurity = 0.00101055176047\nsamples = 8", shape="box"] ;
870 -> 876 ;
877 [label="X[0] <= 138.5000\nimpurity = 0.00012508887351\nsamples = 2", shape="box"] ;
876 -> 877 ;
878 [label="impurity = 0.0000\nsamples = 1\nvalue = [ 0.55311412]", shape="box"] ;
877 -> 878 ;
879 [label="impurity = 0.0000\nsamples = 1\nvalue = [ 0.53074549]", shape="box"] ;
877 -> 879 ;
880 [label="X[1] <= 31.5000\nimpurity = 0.000292045527515\nsamples = 6", shape="box"] ;
876 -> 880 ;
881 [label="X[0] <= 156.0000\nimpurity = 0.00024551247904\nsamples = 3", shape="box"] ;
880 -> 881 ;
882 [label="impurity = 0.0000\nsamples = 1\nvalue = [ 0.62878471]", shape="box"] ;
881 -> 882 ;
883 [label="X[0] <= 165.5000\nimpurity = 0.000103345211876\nsamples = 2", shape="box"] ;
881 -> 883 ;
884 [label="impurity = 0.0000\nsamples = 1\nvalue = [ 0.60832157]", shape="box"] ;
883 -> 884 ;
885 [label="impurity = 0.0000\nsamples = 1\nvalue = [ 0.58675647]", shape="box"] ;
883 -> 885 ;
886 [label="X[0] <= 160.5000\nimpurity = 6.06767042194e-05\nsamples = 3", shape="box"] ;
880 -> 886 ;
887 [label="X[1] <= 48.0000\nimpurity = 6.94673221454e-05\nsamples = 2", shape="box"] ;
886 -> 887 ;
888 [label="impurity = 0.0000\nsamples = 1\nvalue = [ 0.60279294]", shape="box"] ;
887 -> 888 ;
889 [label="impurity = 0.0000\nsamples = 1\nvalue = [ 0.58612353]", shape="box"] ;
887 -> 889 ;
890 [label="impurity = 0.0000\nsamples = 1\nvalue = [ 0.58427137]", shape="box"] ;
886 -> 890 ;
891 [label="X[1] <= 10.0000\nimpurity = 0.00299687646081\nsamples = 4", shape="box"] ;
863 -> 891 ;
892 [label="X[1] <= 1.5000\nimpurity = 0.000121024258396\nsamples = 2", shape="box"] ;
891 -> 892 ;
893 [label="impurity = 0.0000\nsamples = 1\nvalue = [ 0.40013451]", shape="box"] ;
892 -> 893 ;
894 [label="impurity = -0.0000\nsamples = 1\nvalue = [ 0.42347137]", shape="box"] ;
892 -> 894 ;
895 [label="X[1] <= 34.0000\nimpurity = 0.00234924586175\nsamples = 2", shape="box"] ;
891 -> 895 ;
896 [label="impurity = 0.0000\nsamples = 1\nvalue = [ 0.54505569]", shape="box"] ;
895 -> 896 ;
897 [label="impurity = -0.0000\nsamples = 1\nvalue = [ 0.44811765]", shape="box"] ;
895 -> 897 ;
898 [label="X[0] <= 155.0000\nimpurity = 0.00119801357329\nsamples = 49", shape="box"] ;
862 -> 898 ;
899 [label="X[1] <= 93.5000\nimpurity = 0.000884095954097\nsamples = 27", shape="box"] ;
898 -> 899 ;
900 [label="X[1] <= 84.0000\nimpurity = 0.00121024176697\nsamples = 11", shape="box"] ;
899 -> 900 ;
901 [label="X[1] <= 78.0000\nimpurity = 0.00108154013697\nsamples = 9", shape="box"] ;
900 -> 901 ;
902 [label="X[1] <= 75.5000\nimpurity = 0.00110739954252\nsamples = 7", shape="box"] ;
901 -> 902 ;
903 [label="X[1] <= 65.5000\nimpurity = 0.00101432104172\nsamples = 6", shape="box"] ;
902 -> 903 ;
904 [label="X[0] <= 142.5000\nimpurity = 0.000944391184031\nsamples = 3", shape="box"] ;
903 -> 904 ;
905 [label="X[0] <= 129.0000\nimpurity = 0.000331963923756\nsamples = 2", shape="box"] ;
904 -> 905 ;
906 [label="impurity = 0.0000\nsamples = 1\nvalue = [ 0.65006706]", shape="box"] ;
905 -> 906 ;
907 [label="impurity = -0.0000\nsamples = 1\nvalue = [ 0.68871725]", shape="box"] ;
905 -> 907 ;
908 [label="impurity = 0.0000\nsamples = 1\nvalue = [ 0.60722745]", shape="box"] ;
904 -> 908 ;
909 [label="X[0] <= 136.5000\nimpurity = 0.000520145894694\nsamples = 3", shape="box"] ;
903 -> 909 ;
910 [label="X[1] <= 69.5000\nimpurity = 0.000264355705959\nsamples = 2", shape="box"] ;
909 -> 910 ;
911 [label="impurity = 0.0000\nsamples = 1\nvalue = [ 0.62094157]", shape="box"] ;
910 -> 911 ;
912 [label="impurity = 0.0000\nsamples = 1\nvalue = [ 0.58645098]", shape="box"] ;
910 -> 912 ;
913 [label="impurity = 0.0000\nsamples = 1\nvalue = [ 0.63938078]", shape="box"] ;
909 -> 913 ;
914 [label="impurity = -0.0000\nsamples = 1\nvalue = [ 0.6727702]", shape="box"] ;
902 -> 914 ;
915 [label="X[0] <= 142.0000\nimpurity = 2.26600880003e-05\nsamples = 2", shape="box"] ;
901 -> 915 ;
916 [label="impurity = 0.0000\nsamples = 1\nvalue = [ 0.58863843]", shape="box"] ;
915 -> 916 ;
917 [label="impurity = 0.0000\nsamples = 1\nvalue = [ 0.59873647]", shape="box"] ;
915 -> 917 ;
918 [label="X[0] <= 144.5000\nimpurity = 0.000138759160939\nsamples = 2", shape="box"] ;
900 -> 918 ;
919 [label="impurity = 0.0000\nsamples = 1\nvalue = [ 0.65786549]", shape="box"] ;
918 -> 919 ;
920 [label="impurity = 0.0000\nsamples = 1\nvalue = [ 0.68142471]", shape="box"] ;
918 -> 920 ;
921 [label="X[0] <= 130.5000\nimpurity = 0.000525877380634\nsamples = 16", shape="box"] ;
899 -> 921 ;
922 [label="impurity = 0.0000\nsamples = 1\nvalue = [ 0.57127059]", shape="box"] ;
921 -> 922 ;
923 [label="X[1] <= 106.5000\nimpurity = 0.00044297259664\nsamples = 15", shape="box"] ;
921 -> 923 ;
924 [label="X[1] <= 98.0000\nimpurity = 1.59106070741e-06\nsamples = 2", shape="box"] ;
923 -> 924 ;
925 [label="impurity = 0.0000\nsamples = 1\nvalue = [ 0.5853051]", shape="box"] ;
924 -> 925 ;
926 [label="impurity = 0.0000\nsamples = 1\nvalue = [ 0.58782784]", shape="box"] ;
924 -> 926 ;
927 [label="X[1] <= 172.0000\nimpurity = 0.000379116349434\nsamples = 13", shape="box"] ;
923 -> 927 ;
928 [label="X[0] <= 147.0000\nimpurity = 0.000364416235781\nsamples = 9", shape="box"] ;
927 -> 928 ;
929 [label="X[1] <= 130.0000\nimpurity = 0.000226826025959\nsamples = 8", shape="box"] ;
928 -> 929 ;
930 [label="X[1] <= 118.0000\nimpurity = 0.000464241945252\nsamples = 2", shape="box"] ;
929 -> 930 ;
931 [label="impurity = 0.0000\nsamples = 1\nvalue = [ 0.60969765]", shape="box"] ;
930 -> 931 ;
932 [label="impurity = 0.0000\nsamples = 1\nvalue = [ 0.6527902]", shape="box"] ;
930 -> 932 ;
933 [label="X[1] <= 136.5000\nimpurity = 0.00011171696535\nsamples = 6", shape="box"] ;
929 -> 933 ;
934 [label="impurity = 0.0000\nsamples = 1\nvalue = [ 0.59058078]", shape="box"] ;
933 -> 934 ;
935 [label="X[1] <= 156.5000\nimpurity = 3.38975258246e-05\nsamples = 5", shape="box"] ;
933 -> 935 ;
936 [label="X[1] <= 138.0000\nimpurity = 1.18856915418e-05\nsamples = 4", shape="box"] ;
935 -> 936 ;
937 [label="impurity = 0.0000\nsamples = 1\nvalue = [ 0.62559216]", shape="box"] ;
936 -> 937 ;
938 [label="X[1] <= 154.0000\nimpurity = 6.64709337039e-06\nsamples = 3", shape="box"] ;
936 -> 938 ;
939 [label="X[0] <= 140.5000\nimpurity = 1.32670847752e-07\nsamples = 2", shape="box"] ;
938 -> 939 ;
940 [label="impurity = 0.0000\nsamples = 1\nvalue = [ 0.61692275]", shape="box"] ;
939 -> 940 ;
941 [label="impurity = 0.0000\nsamples = 1\nvalue = [ 0.61776392]", shape="box"] ;
939 -> 941 ;
942 [label="impurity = 0.0000\nsamples = 1\nvalue = [ 0.62394745]", shape="box"] ;
938 -> 942 ;
943 [label="impurity = 0.0000\nsamples = 1\nvalue = [ 0.60604392]", shape="box"] ;
935 -> 943 ;
944 [label="impurity = 0.0000\nsamples = 1\nvalue = [ 0.65342314]", shape="box"] ;
928 -> 944 ;
945 [label="X[0] <= 138.5000\nimpurity = 0.000161872224899\nsamples = 4", shape="box"] ;
927 -> 945 ;
946 [label="impurity = 0.0000\nsamples = 1\nvalue = [ 0.62341176]", shape="box"] ;
945 -> 946 ;
947 [label="X[0] <= 149.5000\nimpurity = 2.02911241522e-05\nsamples = 3", shape="box"] ;
945 -> 947 ;
948 [label="X[1] <= 190.5000\nimpurity = 8.58116847358e-06\nsamples = 2", shape="box"] ;
947 -> 948 ;
949 [label="impurity = 0.0000\nsamples = 1\nvalue = [ 0.58921882]", shape="box"] ;
948 -> 949 ;
950 [label="impurity = -0.0000\nsamples = 1\nvalue = [ 0.59543294]", shape="box"] ;
948 -> 950 ;
951 [label="impurity = -0.0000\nsamples = 1\nvalue = [ 0.60130471]", shape="box"] ;
947 -> 951 ;
952 [label="X[1] <= 102.0000\nimpurity = 0.00110972078208\nsamples = 22", shape="box"] ;
898 -> 952 ;
953 [label="X[0] <= 171.0000\nimpurity = 0.00155196897282\nsamples = 6", shape="box"] ;
952 -> 953 ;
954 [label="X[1] <= 58.5000\nimpurity = 0.000258588671654\nsamples = 5", shape="box"] ;
953 -> 954 ;
955 [label="impurity = 0.0000\nsamples = 1\nvalue = [ 0.6068851]", shape="box"] ;
954 -> 955 ;
956 [label="X[0] <= 161.5000\nimpurity = 7.59902912085e-05\nsamples = 4", shape="box"] ;
954 -> 956 ;
957 [label="X[1] <= 72.5000\nimpurity = 1.16658880046e-05\nsamples = 2", shape="box"] ;
956 -> 957 ;
958 [label="impurity = 0.0000\nsamples = 1\nvalue = [ 0.63882314]", shape="box"] ;
957 -> 958 ;
959 [label="impurity = 0.0000\nsamples = 1\nvalue = [ 0.64671098]", shape="box"] ;
957 -> 959 ;
960 [label="X[0] <= 168.0000\nimpurity = 1.70358515794e-07\nsamples = 2", shape="box"] ;
956 -> 960 ;
961 [label="impurity = 0.0000\nsamples = 1\nvalue = [ 0.65872078]", shape="box"] ;
960 -> 961 ;
962 [label="impurity = 0.0000\nsamples = 1\nvalue = [ 0.65789529]", shape="box"] ;
960 -> 962 ;
963 [label="impurity = -0.0000\nsamples = 1\nvalue = [ 0.55254863]", shape="box"] ;
953 -> 963 ;
964 [label="X[1] <= 170.5000\nimpurity = 0.00080810113252\nsamples = 16", shape="box"] ;
952 -> 964 ;
965 [label="X[1] <= 147.5000\nimpurity = 0.000604591434808\nsamples = 11", shape="box"] ;
964 -> 965 ;
966 [label="X[1] <= 117.5000\nimpurity = 0.000246368201567\nsamples = 8", shape="box"] ;
965 -> 966 ;
967 [label="X[1] <= 113.5000\nimpurity = 3.71468064038e-05\nsamples = 3", shape="box"] ;
966 -> 967 ;
968 [label="X[1] <= 106.5000\nimpurity = 3.90026020758e-06\nsamples = 2", shape="box"] ;
967 -> 968 ;
969 [label="impurity = 0.0000\nsamples = 1\nvalue = [ 0.66486745]", shape="box"] ;
968 -> 969 ;
970 [label="impurity = 0.0000\nsamples = 1\nvalue = [ 0.66067804]", shape="box"] ;
968 -> 970 ;
971 [label="impurity = -0.0000\nsamples = 1\nvalue = [ 0.67411725]", shape="box"] ;
967 -> 971 ;
972 [label="X[0] <= 160.0000\nimpurity = 4.73639835658e-05\nsamples = 5", shape="box"] ;
966 -> 972 ;
973 [label="impurity = 0.0000\nsamples = 1\nvalue = [ 0.62504157]", shape="box"] ;
972 -> 973 ;
974 [label="X[0] <= 171.0000\nimpurity = 2.15457942883e-05\nsamples = 4", shape="box"] ;
972 -> 974 ;
975 [label="X[0] <= 165.5000\nimpurity = 2.14302378604e-05\nsamples = 3", shape="box"] ;
974 -> 975 ;
976 [label="X[1] <= 135.5000\nimpurity = 4.46912848273e-06\nsamples = 2", shape="box"] ;
975 -> 976 ;
977 [label="impurity = 0.0000\nsamples = 1\nvalue = [ 0.63901569]", shape="box"] ;
976 -> 977 ;
978 [label="impurity = -0.0000\nsamples = 1\nvalue = [ 0.63433608]", shape="box"] ;
976 -> 978 ;
979 [label="impurity = -0.0000\nsamples = 1\nvalue = [ 0.6503349]", shape="box"] ;
975 -> 979 ;
980 [label="impurity = -0.0000\nsamples = 1\nvalue = [ 0.63401569]", shape="box"] ;
974 -> 980 ;
981 [label="X[1] <= 154.0000\nimpurity = 0.000142222908263\nsamples = 3", shape="box"] ;
965 -> 981 ;
982 [label="impurity = 0.0000\nsamples = 1\nvalue = [ 0.70156824]", shape="box"] ;
981 -> 982 ;
983 [label="X[1] <= 158.0000\nimpurity = 7.64767397299e-07\nsamples = 2", shape="box"] ;
981 -> 983 ;
984 [label="impurity = 0.0000\nsamples = 1\nvalue = [ 0.67663216]", shape="box"] ;
983 -> 984 ;
985 [label="impurity = -0.0000\nsamples = 1\nvalue = [ 0.67838118]", shape="box"] ;
983 -> 985 ;
986 [label="X[0] <= 171.0000\nimpurity = 0.000997653995634\nsamples = 5", shape="box"] ;
964 -> 986 ;
987 [label="X[0] <= 166.0000\nimpurity = 0.00174274414174\nsamples = 3", shape="box"] ;
986 -> 987 ;
988 [label="X[0] <= 162.0000\nimpurity = 0.000111346111325\nsamples = 2", shape="box"] ;
987 -> 988 ;
989 [label="impurity = 0.0000\nsamples = 1\nvalue = [ 0.63718549]", shape="box"] ;
988 -> 989 ;
990 [label="impurity = -0.0000\nsamples = 1\nvalue = [ 0.6595698]", shape="box"] ;
988 -> 990 ;
991 [label="impurity = -0.0000\nsamples = 1\nvalue = [ 0.55057647]", shape="box"] ;
987 -> 991 ;
992 [label="X[1] <= 181.5000\nimpurity = 1.69848010385e-05\nsamples = 2", shape="box"] ;
986 -> 992 ;
993 [label="impurity = 0.0000\nsamples = 1\nvalue = [ 0.63569725]", shape="box"] ;
992 -> 993 ;
994 [label="impurity = -0.0000\nsamples = 1\nvalue = [ 0.6452149]", shape="box"] ;
992 -> 994 ;
995 [label="X[1] <= 226.5000\nimpurity = 0.031338937053\nsamples = 18", shape="box"] ;
861 -> 995 ;
996 [label="X[0] <= 148.0000\nimpurity = 0.0243744361399\nsamples = 15", shape="box"] ;
995 -> 996 ;
997 [label="X[1] <= 216.5000\nimpurity = 0.0129030437185\nsamples = 5", shape="box"] ;
996 -> 997 ;
998 [label="X[0] <= 132.0000\nimpurity = 8.20502155574e-06\nsamples = 3", shape="box"] ;
997 -> 998 ;
999 [label="impurity = 0.0000\nsamples = 1\nvalue = [ 0.61062824]", shape="box"] ;
998 -> 999 ;
1000 [label="impurity = 0.0000\nsamples = 2\nvalue = [ 0.60455941]", shape="box"] ;
998 -> 1000 ;
1001 [label="X[1] <= 225.5000\nimpurity = 0.00197594453501\nsamples = 2", shape="box"] ;
997 -> 1001 ;
1002 [label="impurity = 0.0000\nsamples = 1\nvalue = [ 0.41973961]", shape="box"] ;
1001 -> 1002 ;
1003 [label="impurity = 0.0000\nsamples = 1\nvalue = [ 0.32544353]", shape="box"] ;
1001 -> 1003 ;
1004 [label="X[1] <= 222.5000\nimpurity = 0.0123497860257\nsamples = 10", shape="box"] ;
996 -> 1004 ;
1005 [label="X[1] <= 220.0000\nimpurity = 0.00488704423659\nsamples = 9", shape="box"] ;
1004 -> 1005 ;
1006 [label="X[0] <= 177.0000\nimpurity = 0.00410809347185\nsamples = 8", shape="box"] ;
1005 -> 1006 ;
1007 [label="X[1] <= 209.5000\nimpurity = 0.00284672338027\nsamples = 6", shape="box"] ;
1006 -> 1007 ;
1008 [label="impurity = 0.0000\nsamples = 1\nvalue = [ 0.29639333]", shape="box"] ;
1007 -> 1008 ;
1009 [label="X[1] <= 217.5000\nimpurity = 0.000697802441461\nsamples = 5", shape="box"] ;
1007 -> 1009 ;
1010 [label="X[1] <= 215.5000\nimpurity = 0.000306684793272\nsamples = 4", shape="box"] ;
1009 -> 1010 ;
1011 [label="X[1] <= 212.0000\nimpurity = 1.90221186723e-06\nsamples = 3", shape="box"] ;
1010 -> 1011 ;
1012 [label="impurity = 0.0000\nsamples = 1\nvalue = [ 0.17008314]", shape="box"] ;
1011 -> 1012 ;
1013 [label="impurity = 0.0000\nsamples = 2\nvalue = [ 0.16716255]", shape="box"] ;
1011 -> 1013 ;
